{"learner":{"attributes":{"best_iteration":"2","best_score":"0.7504988028731046"},"feature_names":["num_diagnoses","has_heart_failure","has_diabetes","has_copd","has_pneumonia","comorbidity_index","visits_30d","visits_60d","visits_90d","length_of_stay","discharge_disposition_encoded","specialty_encoded"],"feature_types":[],"gradient_booster":{"model":{"cats":{"enc":[],"feature_segments":[],"sorted_idx":[]},"gbtree_model_param":{"num_parallel_tree":"1","num_trees":"23"},"iteration_indptr":[0,1,2,3,4,5,6,7,8,9,10,11,12,13,14,15,16,17,18,19,20,21,22,23],"tree_info":[0,0,0,0,0,0,0,0,0,0,0,0,0,0,0,0,0,0,0,0,0,0,0],"trees":[{"base_weights":[-1.7290656E-2,-4.936256E-1,1.3630259E0,-5.830388E-1,1.2762998E0,5.671727E-1,2.3428466E0,-6.589488E-1,4.820524E-1,2.9031694E-2,1.540955E0,-2.634337E-1,1.0048281E0,1.3865626E0,3.0532274E-1,-8.965584E-1,-4.50486E-1,8.3442554E-2,7.091948E-2,2.3335317E-2,2.2375183E-1,-5.1796854E-1,2.7272973E-2,1.9919346E-1,4.8933536E-1,2.2484826E-1,3.8508326E-1,-1.0535752E-1,-7.140041E-1,-5.4238546E-1,2.4655777E-1,-1.99785E-2,3.523001E-2,3.523001E-2,-8.4320344E-2,-4.3192714E-1,1.1213948E0,1.0867172E-1,-4.0223952E-2,-8.778887E-2,-3.6183402E-2,-7.8218065E-2,-3.8013708E-2,-4.0223952E-2,6.664349E-2,-7.1434714E-2,6.078559E-4,2.2708433E-2,2.399044E-1],"categories":[],"categories_nodes":[],"categories_segments":[],"categories_sizes":[],"default_left":[0,0,0,0,0,0,0,0,0,0,0,0,0,0,0,0,0,0,0,0,0,0,0,0,0,0,0,0,0,0,0,0,0,0,0,0,0,0,0,0,0,0,0,0,0,0,0,0,0],"id":0,"left_children":[1,3,5,7,9,11,13,15,17,-1,19,21,23,25,-1,27,29,31,-1,-1,-1,33,-1,-1,35,-1,37,-1,39,41,43,-1,-1,-1,-1,45,47,-1,-1,-1,-1,-1,-1,-1,-1,-1,-1,-1,-1],"loss_changes":[7.969566E1,1.5000868E1,2.2923424E1,7.3065376E0,7.649236E-1,6.9828796E0,5.0188675E0,3.613865E0,5.1380444E-1,0E0,2.6024637E0,1.1197357E0,5.289775E0,5.726487E0,0E0,3.0535507E-1,3.030202E0,3.3160973E-1,0E0,0E0,0E0,1.7707567E0,0E0,0E0,5.965643E0,0E0,3.0551317E0,0E0,8.460951E-1,1.2691116E0,1.8901582E0,0E0,0E0,0E0,0E0,5.6746536E-1,6.1520877E0,0E0,0E0,0E0,0E0,0E0,0E0,0E0,0E0,0E0,0E0,0E0,0E0],"parents":[2147483647,0,0,1,1,2,2,3,3,4,4,5,5,6,6,7,7,8,8,10,10,11,11,12,12,13,13,15,15,16,16,17,17,21,21,24,24,26,26,28,28,29,29,30,30,35,35,36,36],"right_children":[2,4,6,8,10,12,14,16,18,-1,20,22,24,26,-1,28,30,32,-1,-1,-1,34,-1,-1,36,-1,38,-1,40,42,44,-1,-1,-1,-1,46,48,-1,-1,-1,-1,-1,-1,-1,-1,-1,-1,-1,-1],"split_conditions":[2E0,4E0,5E0,6E0,2E0,3E0,7E0,2E0,1E0,2.9031694E-2,5E0,1E0,2E0,3E0,3.0532274E-1,1E0,1E0,6E0,7.091948E-2,2.3335317E-2,2.2375183E-1,5E0,2.7272973E-2,1.9919346E-1,3E0,2.2484826E-1,6E0,-1.0535752E-1,3E0,2E0,1E0,-1.99785E-2,3.523001E-2,3.523001E-2,-8.4320344E-2,4E0,1E0,1.0867172E-1,-4.0223952E-2,-8.778887E-2,-3.6183402E-2,-7.8218065E-2,-3.8013708E-2,-4.0223952E-2,6.664349E-2,-7.1434714E-2,6.078559E-4,2.2708433E-2,2.399044E-1],"split_indices":[8,10,9,9,9,8,0,11,7,0,0,10,9,11,0,11,2,11,0,0,0,0,0,0,11,0,9,0,9,9,7,0,0,0,0,9,2,0,0,0,0,0,0,0,0,0,0,0,0],"split_type":[0,0,0,0,0,0,0,0,0,0,0,0,0,0,0,0,0,0,0,0,0,0,0,0,0,0,0,0,0,0,0,0,0,0,0,0,0,0,0,0,0,0,0,0,0,0,0,0,0],"sum_hessian":[1.191881E2,8.9087265E1,3.0100838E1,8.5441505E1,3.6457536E0,1.748092E1,1.2619917E1,8.01131E1,5.328409E0,1.2152512E0,2.4305024E0,6.169737E0,1.1311184E1,6.637141E0,5.982775E0,3.5896652E1,4.421645E1,2.4305024E0,2.8979068E0,1.308732E0,1.1217704E0,4.206639E0,1.9630982E0,2.8979068E0,8.413278E0,2.8979068E0,3.7392344E0,1.6733074E1,1.9163576E1,3.9261963E1,4.954486E0,1.308732E0,1.1217704E0,1.1217704E0,3.0848684E0,3.5522728E0,4.861005E0,1.7761364E0,1.9630982E0,1.20590315E1,7.1045456E0,1.4302572E1,2.495939E1,1.9630982E0,2.9913876E0,1.7761364E0,1.7761364E0,3.5522728E0,1.308732E0],"tree_param":{"num_deleted":"0","num_feature":"12","num_nodes":"49","size_leaf_vector":"1"}},{"base_weights":[-1.535359E-2,-2.840904E-1,1.9691069E0,-5.0920385E-1,7.3921937E-1,1.2486482E0,3.3610985E-1,-5.752346E-1,6.263445E-1,-3.6903408E-1,1.1008332E0,7.6616526E-1,1.5798581E0,-6.5007925E-1,3.1914768E-1,-1.1494201E-1,1.7716241E-1,-5.401557E-1,-1.5194762E-3,1.2672385E0,-2.606121E-2,9.839756E-2,-1.3214561E-2,1.781439E0,3.7406586E-2,-7.0259434E-1,1.100027E-1,6.5788424E-1,-6.4158015E-2,-6.729659E-2,4.7713462E-2,-6.5335333E-3,-6.9654636E-2,8.290718E-1,1.9123855E-1,7.528921E-2,2.149703E-1,-8.283744E-2,-5.5794235E-2,3.5031278E-2,-3.1353556E-2,-2.8238794E-2,1.6211365E-1,-4.4071153E-3,1.1917057E-1],"categories":[],"categories_nodes":[],"categories_segments":[],"categories_sizes":[],"default_left":[0,0,0,0,0,0,0,0,0,0,0,0,0,0,0,0,0,0,0,0,0,0,0,0,0,0,0,0,0,0,0,0,0,0,0,0,0,0,0,0,0,0,0,0,0],"id":1,"left_children":[1,3,5,7,9,11,-1,13,15,17,19,21,23,25,27,29,-1,31,-1,33,-1,-1,-1,35,-1,37,39,41,-1,-1,-1,-1,-1,43,-1,-1,-1,-1,-1,-1,-1,-1,-1,-1,-1],"loss_changes":[6.35224E1,2.4531157E1,1.0051407E1,6.8492165E0,8.147059E0,5.398941E-1,0E0,5.717037E0,4.647566E0,3.2486683E-1,3.6865063E0,1.3822544E0,6.8337536E-1,3.122055E0,2.7087436E0,1.681239E0,0E0,2.2766912E-1,0E0,2.1943913E0,0E0,0E0,0E0,8.2927704E-2,0E0,8.3844376E-1,6.995829E-1,5.6100626E0,0E0,0E0,0E0,0E0,0E0,3.1328626E0,0E0,0E0,0E0,0E0,0E0,0E0,0E0,0E0,0E0,0E0,0E0],"parents":[2147483647,0,0,1,1,2,2,3,3,4,4,5,5,7,7,8,8,9,9,10,10,11,11,12,12,13,13,14,14,15,15,17,17,19,19,23,23,25,25,26,26,27,27,33,33],"right_children":[2,4,6,8,10,12,-1,14,16,18,20,22,24,26,28,30,-1,32,-1,34,-1,-1,-1,36,-1,38,40,42,-1,-1,-1,-1,-1,44,-1,-1,-1,-1,-1,-1,-1,-1,-1,-1,-1],"split_conditions":[3E0,5E0,1E0,1E0,1E0,7E0,3.3610985E-1,1E0,4E0,1E0,1E0,6E0,8E0,1E0,8E0,6E0,1.7716241E-1,4E0,-1.5194762E-3,1E0,-2.606121E-2,9.839756E-2,-1.3214561E-2,5E0,3.7406586E-2,2E0,2E0,2E0,-6.4158015E-2,-6.729659E-2,4.7713462E-2,-6.5335333E-3,-6.9654636E-2,1E0,1.9123855E-1,7.528921E-2,2.149703E-1,-8.283744E-2,-5.5794235E-2,3.5031278E-2,-3.1353556E-2,-2.8238794E-2,1.6211365E-1,-4.4071153E-3,1.1917057E-1],"split_indices":[6,9,3,4,5,0,0,1,9,4,4,0,9,3,0,0,0,0,0,3,0,0,0,9,0,11,6,5,0,0,0,0,0,6,0,0,0,0,0,0,0,0,0,0,0],"split_type":[0,0,0,0,0,0,0,0,0,0,0,0,0,0,0,0,0,0,0,0,0,0,0,0,0,0,0,0,0,0,0,0,0,0,0,0,0,0,0,0,0,0,0,0,0],"sum_hessian":[1.1706354E2,1.0385612E2,1.3207415E1,8.554077E1,1.8315348E1,9.953014E0,3.2544E0,8.1306335E1,4.234434E0,4.500857E0,1.381449E1,5.399964E0,4.55305E0,7.527985E1,6.026495E0,3.1167467E0,1.1176873E0,2.678797E0,1.8220599E0,1.237155E1,1.4429407E0,4.269412E0,1.1305518E0,3.4918854E0,1.0611649E0,7.0485535E1,4.7943063E0,4.688597E0,1.3378978E0,1.5341821E0,1.5825646E0,1.0149773E0,1.6638197E0,8.728485E0,3.643065E0,1.7232772E0,1.7686082E0,3.517391E1,3.531163E1,3.1690936E0,1.6252126E0,2.7302861E0,1.9583111E0,2.8191235E0,5.9093614E0],"tree_param":{"num_deleted":"0","num_feature":"12","num_nodes":"45","size_leaf_vector":"1"}},{"base_weights":[3.1121304E-2,-4.325919E-1,1.1538125E0,-5.5226856E-1,1.1334391E0,5.3350145E-1,1.7357341E0,-6.3476247E-1,1.0364356E0,3.2334402E-1,1.8903922E-1,1.4533482E-1,1.214367E0,1.2514873E0,2.396884E-1,-6.7869693E-1,8.1945114E-2,-1.4007862E-2,1.5343241E-1,8.7585375E-2,-3.3107795E-2,-6.3727045E-1,5.1261646E-1,3.6627305E-1,2.2537236E-1,1.544992E0,1.9890223E-1,-7.0138323E-1,-1.3687615E-1,-2.3945993E-2,-7.441115E-2,8.9778477E-1,-2.9008892E-1,9.622817E-2,-3.7723836E-2,1.721962E-1,7.0472944E-1,7.259914E-2,-5.9820104E-2,-8.316135E-2,-6.0813386E-2,4.2034015E-2,-6.7459546E-2,1.3846445E-1,-1.0609315E-2,2.2901444E-2,-6.638415E-2,-1.75559E-2,1.2836182E-1],"categories":[],"categories_nodes":[],"categories_segments":[],"categories_sizes":[],"default_left":[0,0,0,0,0,0,0,0,0,0,0,0,0,0,0,0,0,0,0,0,0,0,0,0,0,0,0,0,0,0,0,0,0,0,0,0,0,0,0,0,0,0,0,0,0,0,0,0,0],"id":2,"left_children":[1,3,5,7,9,11,13,15,17,19,-1,21,23,25,-1,27,-1,-1,-1,-1,-1,29,31,33,-1,35,37,39,41,-1,-1,43,45,-1,-1,-1,47,-1,-1,-1,-1,-1,-1,-1,-1,-1,-1,-1,-1],"loss_changes":[6.1163322E1,1.6217628E1,1.1467518E1,1.0874989E1,3.2113695E0,4.5972276E0,2.5298996E0,5.3306847E0,2.6915827E0,1.8149372E0,0E0,3.9598489E0,4.8358173E0,3.4191227E0,0E0,8.0236053E-1,0E0,0E0,0E0,0E0,0E0,1.2356758E-2,3.0915196E0,2.4593863E0,0E0,1.6705704E-1,2.0215085E0,3.4319687E-1,1.5358827E0,0E0,0E0,3.2905002E0,8.7472034E-1,0E0,0E0,0E0,1.9110643E0,0E0,0E0,0E0,0E0,0E0,0E0,0E0,0E0,0E0,0E0,0E0,0E0],"parents":[2147483647,0,0,1,1,2,2,3,3,4,4,5,5,6,6,7,7,8,8,9,9,11,11,12,12,13,13,15,15,21,21,22,22,23,23,25,25,26,26,27,27,28,28,31,31,32,32,36,36],"right_children":[2,4,6,8,10,12,14,16,18,20,-1,22,24,26,-1,28,-1,-1,-1,-1,-1,30,32,34,-1,36,38,40,42,-1,-1,44,46,-1,-1,-1,48,-1,-1,-1,-1,-1,-1,-1,-1,-1,-1,-1,-1],"split_conditions":[2E0,1E0,5E0,4E0,2E0,1E0,2E0,3E0,3E0,6E0,1.8903922E-1,3E0,1E0,1E0,2.396884E-1,1E0,8.1945114E-2,-1.4007862E-2,1.5343241E-1,8.7585375E-2,-3.3107795E-2,6E0,4E0,2E0,2.2537236E-1,8E0,6E0,2E0,6E0,-2.3945993E-2,-7.441115E-2,1E0,4E0,9.622817E-2,-3.7723836E-2,1.721962E-1,1E0,7.259914E-2,-5.9820104E-2,-8.316135E-2,-6.0813386E-2,4.2034015E-2,-6.7459546E-2,1.3846445E-1,-1.0609315E-2,2.2901444E-2,-6.638415E-2,-1.75559E-2,1.2836182E-1],"split_indices":[7,3,9,10,5,10,5,5,0,0,0,8,2,3,0,1,0,0,0,0,0,0,9,9,0,9,9,9,0,0,0,2,8,0,0,0,10,0,0,0,0,0,0,0,0,0,0,0,0],"split_type":[0,0,0,0,0,0,0,0,0,0,0,0,0,0,0,0,0,0,0,0,0,0,0,0,0,0,0,0,0,0,0,0,0,0,0,0,0,0,0,0,0,0,0,0,0,0,0,0,0],"sum_hessian":[1.1552594E2,8.219219E1,3.3333748E1,7.695835E1,5.233842E0,1.7062464E1,1.6271284E1,7.373034E1,3.2280154E0,3.2175589E0,2.016283E0,1.1639915E1,5.422548E0,1.1062014E1,5.2092705E0,7.2085785E1,1.6445552E0,1.1735536E0,2.0544617E0,1.5611566E0,1.6564021E0,3.4830716E0,8.156844E0,3.7307417E0,1.6918063E0,8.284219E0,2.7777944E0,6.890616E1,3.1796224E0,1.4236269E0,2.0594447E0,5.431944E0,2.7249002E0,1.9074584E0,1.8232832E0,5.9762335E0,2.3079855E0,1.7258071E0,1.0519873E0,2.5447914E1,4.345825E1,1.6687039E0,1.5109184E0,3.4025047E0,2.0294392E0,1.3027595E0,1.4221407E0,1.1920395E0,1.115946E0],"tree_param":{"num_deleted":"0","num_feature":"12","num_nodes":"49","size_leaf_vector":"1"}},{"base_weights":[6.47264E-2,-3.8280973E-1,1.0596173E0,-4.8099655E-1,7.4761623E-1,7.153728E-1,1.6206203E0,-5.460233E-1,6.795581E-1,-1.7168688E-2,1.22155964E-1,1.1105427E0,4.1922215E-2,7.263119E-1,1.790158E-1,-5.876602E-1,7.012352E-2,-1.4333908E-1,1.5304586E-1,1.430835E0,-2.896843E-1,-4.9101874E-1,7.3684E-1,1.5003358E-2,1.00238375E-1,-8.0850583E-1,-3.954525E-1,4.252941E-2,-6.0658276E-2,2.4162833E-1,1.043495E0,-7.0329405E-2,4.13652E-2,-6.8428963E-1,3.6662705E-3,-1.2541154E-2,1.4483032E-1,-9.858964E-2,-4.7315594E-2,-4.4212155E-2,1.1163573E-2,5.488805E-2,1.2334087E-1,-8.2238816E-2,-1.1637616E-2],"categories":[],"categories_nodes":[],"categories_segments":[],"categories_sizes":[],"default_left":[0,0,0,0,0,0,0,0,0,0,0,0,0,0,0,0,0,0,0,0,0,0,0,0,0,0,0,0,0,0,0,0,0,0,0,0,0,0,0,0,0,0,0,0,0],"id":3,"left_children":[1,3,5,7,9,11,13,15,17,-1,-1,19,21,23,-1,25,-1,27,-1,29,31,33,35,-1,-1,37,39,-1,-1,-1,41,-1,-1,43,-1,-1,-1,-1,-1,-1,-1,-1,-1,-1,-1],"loss_changes":[5.289765E1,9.466544E0,5.9559937E0,6.1141834E0,3.2372365E0,6.506345E0,7.042732E-1,4.1832695E0,3.3585868E0,0E0,0E0,7.356287E0,4.118909E0,4.525107E-1,0E0,2.6862907E0,0E0,1.0991966E0,0E0,2.3511925E0,1.3710842E0,6.7183995E-1,3.1281638E0,0E0,0E0,1.4368725E0,9.917164E-1,0E0,0E0,0E0,3.4910774E-1,0E0,0E0,2.723112E-1,0E0,0E0,0E0,0E0,0E0,0E0,0E0,0E0,0E0,0E0,0E0],"parents":[2147483647,0,0,1,1,2,2,3,3,4,4,5,5,6,6,7,7,8,8,11,11,12,12,13,13,15,15,17,17,19,19,20,20,21,21,22,22,25,25,26,26,30,30,33,33],"right_children":[2,4,6,8,10,12,14,16,18,-1,-1,20,22,24,-1,26,-1,28,-1,30,32,34,36,-1,-1,38,40,-1,-1,-1,42,-1,-1,44,-1,-1,-1,-1,-1,-1,-1,-1,-1,-1,-1],"split_conditions":[2E0,1E0,2E0,4E0,6E0,6E0,3E0,3E0,5E0,-1.7168688E-2,1.22155964E-1,1E0,7E0,6E0,1.790158E-1,2E0,7.012352E-2,2E0,1.5304586E-1,2E0,4E0,1E0,5E0,1.5003358E-2,1.00238375E-1,3E0,6E0,4.252941E-2,-6.0658276E-2,2.4162833E-1,5E0,-7.0329405E-2,4.13652E-2,1E0,3.6662705E-3,-1.2541154E-2,1.4483032E-1,-9.858964E-2,-4.7315594E-2,-4.4212155E-2,1.1163573E-2,5.488805E-2,1.2334087E-1,-8.2238816E-2,-1.1637616E-2],"split_indices":[7,3,5,10,11,11,9,5,0,0,0,2,0,11,0,11,0,9,0,9,9,3,9,0,0,9,9,0,0,0,9,0,0,2,0,0,0,0,0,0,0,0,0,0,0],"split_type":[0,0,0,0,0,0,0,0,0,0,0,0,0,0,0,0,0,0,0,0,0,0,0,0,0,0,0,0,0,0,0,0,0,0,0,0,0,0,0,0,0,0,0,0,0],"sum_hessian":[1.1689347E2,8.1049736E1,3.5843735E1,7.510108E1,5.9486504E0,2.3623173E1,1.222056E1,7.16178E1,3.4832845E0,2.2405083E0,3.708142E0,1.4478432E1,9.144742E0,2.7895925E0,9.430967E0,6.9815994E1,1.8018081E0,2.1935089E0,1.2897757E0,1.1765333E1,2.7130983E0,5.3416104E0,3.8031318E0,1.4034526E0,1.38614E0,3.0995684E1,3.882031E1,1.021516E0,1.1719928E0,1.8416823E0,9.923651E0,1.7084645E0,1.0046337E0,3.6924224E0,1.6491882E0,2.0917637E0,1.711368E0,1.9003485E1,1.19922E1,3.5665966E1,3.1543427E0,3.8324652E0,6.0911856E0,2.6097314E0,1.0826908E0],"tree_param":{"num_deleted":"0","num_feature":"12","num_nodes":"45","size_leaf_vector":"1"}},{"base_weights":[-2.0289257E-2,-6.014741E-1,5.3111196E-1,-6.4567584E-1,1.5461013E-1,2.5486454E-1,1.2178359E0,-9.986029E-2,-5.244466E-1,-3.4662653E-2,6.916429E-2,-6.466559E-2,7.3207676E-1,-1.1157033E-2,1.314035E0,-7.6479785E-2,-4.10325E-1,-3.501502E-1,5.840349E-1,1.098468E0,-1.2776814E-2,1.4771051E0,1.6472344E-1,-3.108E-1,-6.8303245E-1,-1.4618856E-1,-7.795088E-1,8.37571E-1,-5.9990358E-2,5.8023924E-1,1.7386284E0,-6.4032465E-2,2.487019E-1,1.5794637E0,5.5466592E-2,3.9324105E-2,-1.3493222E-2,-5.4564085E-2,-1.036105E-2,-2.3513816E-2,-8.727955E-2,-2.8175924E-2,7.617592E-2,-8.942723E-2,-1.915407E-2,1.3589821E-2,1.2714241E-1,1.0234183E-1,-4.5463007E-2,2.4029131E-1,3.40412E-2,-9.288262E-3,4.479024E-2,1.7781296E-1,5.7756096E-2],"categories":[],"categories_nodes":[],"categories_segments":[],"categories_sizes":[],"default_left":[0,0,0,0,0,0,0,0,0,0,0,0,0,0,0,0,0,0,0,0,0,0,0,0,0,0,0,0,0,0,0,0,0,0,0,0,0,0,0,0,0,0,0,0,0,0,0,0,0,0,0,0,0,0,0],"id":4,"left_children":[1,3,5,7,9,11,13,-1,15,-1,-1,17,19,-1,21,-1,23,25,27,29,31,33,35,37,39,41,43,45,-1,47,49,-1,51,53,-1,-1,-1,-1,-1,-1,-1,-1,-1,-1,-1,-1,-1,-1,-1,-1,-1,-1,-1,-1,-1],"loss_changes":[3.7596455E1,2.0081253E0,1.1113909E1,1.7926502E0,1.3058532E0,6.7886705E0,2.3221035E0,0E0,8.492832E-1,0E0,0E0,5.278577E0,4.874922E0,0E0,2.7443829E0,0E0,6.2663126E-1,1.6069283E0,3.1282983E0,2.9556885E0,1.285101E0,4.3022346E-1,2.6577017E-1,1.1345792E0,4.2622375E-1,2.0059946E0,2.4017167E-1,2.147595E0,0E0,4.1824903E0,3.6824074E0,0E0,4.20159E-1,1.344017E0,0E0,0E0,0E0,0E0,0E0,0E0,0E0,0E0,0E0,0E0,0E0,0E0,0E0,0E0,0E0,0E0,0E0,0E0,0E0,0E0,0E0],"parents":[2147483647,0,0,1,1,2,2,3,3,4,4,5,5,6,6,8,8,11,11,12,12,14,14,16,16,17,17,18,18,19,19,20,20,21,21,22,22,23,23,24,24,25,25,26,26,27,27,29,29,30,30,32,32,33,33],"right_children":[2,4,6,8,10,12,14,-1,16,-1,-1,18,20,-1,22,-1,24,26,28,30,32,34,36,38,40,42,44,46,-1,48,50,-1,52,54,-1,-1,-1,-1,-1,-1,-1,-1,-1,-1,-1,-1,-1,-1,-1,-1,-1,-1,-1,-1,-1],"split_conditions":[1E0,4E0,3E0,1E0,3E0,1E0,2E0,-9.986029E-2,3E0,-3.4662653E-2,6.916429E-2,7E0,8E0,-1.1157033E-2,8E0,-7.6479785E-2,4E0,1E0,8E0,2E0,4E0,3E0,4E0,2E0,5E0,3E0,6E0,1E0,-5.9990358E-2,3E0,2E0,-6.4032465E-2,2E0,6E0,5.5466592E-2,3.9324105E-2,-1.3493222E-2,-5.4564085E-2,-1.036105E-2,-2.3513816E-2,-8.727955E-2,-2.8175924E-2,7.617592E-2,-8.942723E-2,-1.915407E-2,1.3589821E-2,1.2714241E-1,1.0234183E-1,-4.5463007E-2,2.4029131E-1,3.40412E-2,-9.288262E-3,4.479024E-2,1.7781296E-1,5.7756096E-2],"split_indices":[5,10,6,11,9,1,11,0,0,0,0,0,0,0,9,0,9,10,11,5,9,5,6,9,0,5,0,6,0,11,6,0,6,9,0,0,0,0,0,0,0,0,0,0,0,0,0,0,0,0,0,0,0,0,0],"split_type":[0,0,0,0,0,0,0,0,0,0,0,0,0,0,0,0,0,0,0,0,0,0,0,0,0,0,0,0,0,0,0,0,0,0,0,0,0,0,0,0,0,0,0,0,0,0,0,0,0,0,0,0,0,0,0],"sum_hessian":[1.1532125E2,5.6100113E1,5.922114E1,5.313953E1,2.9605823E0,4.321018E1,1.6010963E1,1.173598E1,4.140355E1,1.7147148E0,1.2458675E0,2.6398712E1,1.6811466E1,1.06963E0,1.4941333E1,1.149415E1,2.9909399E1,1.8650915E1,7.7477956E0,1.0950303E1,5.8611636E0,1.2835027E1,2.1063063E0,2.3480017E1,6.4293833E0,1.3553142E1,5.0977745E0,6.6222253E0,1.1255703E0,7.104996E0,3.8453069E0,1.2977381E0,4.5634255E0,1.0911916E1,1.9231106E0,1.0178123E0,1.088494E0,1.0239933E1,1.3240083E1,2.5796933E0,3.84969E0,1.2392434E1,1.1607077E0,3.8293777E0,1.2683966E0,3.0319204E0,3.590305E0,4.982376E0,2.1226199E0,2.1196957E0,1.7256112E0,1.8775567E0,2.685869E0,8.459701E0,2.452215E0],"tree_param":{"num_deleted":"0","num_feature":"12","num_nodes":"55","size_leaf_vector":"1"}},{"base_weights":[2.339468E-2,-4.6336377E-1,4.5355445E-1,-5.302277E-1,3.8876867E-1,5.37419E-1,-6.7742325E-2,-9.82054E-2,-3.9378273E-1,-2.7314052E-2,7.872339E-2,-2.7986714E-1,6.8516505E-1,-4.3583447E-1,6.663509E-2,-5.985825E-2,1.9036637E-1,4.825014E-1,9.382752E-1,-3.3589754E-1,-8.092638E-2,4.182241E-2,-3.1426385E-2,5.11293E-2,-1.269263E-2,1.0284373E0,1.4953667E-1,4.3894675E-1,1.1759328E0,-4.881255E-2,7.863115E-3,1.8726085E-1,6.876909E-2,-1.5511025E-3,1.3403131E-1,-1.0760368E-2,1.4554399E-1,1.4237715E-1,3.6587354E-2],"categories":[],"categories_nodes":[],"categories_segments":[],"categories_sizes":[],"default_left":[0,0,0,0,0,0,0,0,0,0,0,0,0,0,0,0,0,0,0,0,0,0,0,0,0,0,0,0,0,0,0,0,0,0,0,0,0,0,0],"id":5,"left_children":[1,3,5,7,9,11,-1,-1,13,-1,-1,15,17,19,21,-1,23,25,27,29,-1,-1,-1,-1,-1,31,33,35,37,-1,-1,-1,-1,-1,-1,-1,-1,-1,-1],"loss_changes":[2.4971739E1,3.395382E0,6.366563E0,2.8390818E0,1.4413269E0,7.373253E0,0E0,0E0,8.3946705E-1,0E0,0E0,1.5849891E0,2.1458626E0,1.1644974E0,7.1672636E-1,0E0,5.45918E-1,5.3343105E0,2.0312977E0,2.0621889E0,0E0,0E0,0E0,0E0,0E0,1.9533329E0,3.9364946E0,4.888972E0,2.2795181E0,0E0,0E0,0E0,0E0,0E0,0E0,0E0,0E0,0E0,0E0],"parents":[2147483647,0,0,1,1,2,2,3,3,4,4,5,5,8,8,11,11,12,12,13,13,14,14,16,16,17,17,18,18,19,19,25,25,26,26,27,27,28,28],"right_children":[2,4,6,8,10,12,-1,-1,14,-1,-1,16,18,20,22,-1,24,26,28,30,-1,-1,-1,-1,-1,32,34,36,38,-1,-1,-1,-1,-1,-1,-1,-1,-1,-1],"split_conditions":[1E0,4E0,8E0,1E0,2E0,2E0,-6.7742325E-2,-9.82054E-2,1E0,-2.7314052E-2,7.872339E-2,2E0,2E0,4E0,5E0,-5.985825E-2,1E0,3E0,3E0,3E0,-8.092638E-2,4.182241E-2,-3.1426385E-2,5.11293E-2,-1.269263E-2,2E0,6E0,7E0,3E0,-4.881255E-2,7.863115E-3,1.8726085E-1,6.876909E-2,-1.5511025E-3,1.3403131E-1,-1.0760368E-2,1.4554399E-1,1.4237715E-1,3.6587354E-2],"split_indices":[5,10,11,11,9,11,0,0,4,0,0,5,5,9,9,0,11,11,11,9,0,0,0,0,0,9,8,9,5,0,0,0,0,0,0,0,0,0,0],"split_type":[0,0,0,0,0,0,0,0,0,0,0,0,0,0,0,0,0,0,0,0,0,0,0,0,0,0,0,0,0,0,0,0,0,0,0,0,0,0,0],"sum_hessian":[1.1725922E2,5.497436E1,6.2284855E1,5.132484E1,3.6495225E0,5.8473717E1,3.8111413E0,1.0466952E1,4.0857887E1,1.4895988E0,2.1599238E0,8.815392E0,4.9658325E1,3.748741E1,3.3704762E0,5.0915127E0,3.7238784E0,2.919132E1,2.0467003E1,3.1071556E1,6.4158554E0,1.7017149E0,1.6687614E0,1.5473663E0,2.176512E0,1.026761E1,1.8923712E1,7.518109E0,1.29488945E1,2.2596037E1,8.475519E0,1.6598523E0,8.607757E0,1.748691E1,1.4368011E0,5.470734E0,2.047375E0,9.335171E0,3.613724E0],"tree_param":{"num_deleted":"0","num_feature":"12","num_nodes":"39","size_leaf_vector":"1"}},{"base_weights":[-1.4635054E-2,-5.6019795E-1,4.1982248E-1,-6.2806E-1,4.3569022E-1,3.334671E-1,1.5254848E0,-9.6988656E-2,-5.1657826E-1,-1.8597027E-2,8.128254E-2,4.0576932E-1,-6.4906996E-1,1.9636595E-1,2.1915408E-2,-5.5321444E-2,-4.4020467E-2,2.8784582E-1,1.1265234E0,-1.1481675E-2,-7.905838E-2,-1.9164564E-2,1.0586959E-2,1.4245416E-2,6.7063564E-1,1.475426E0,-5.3756027E-3,-5.3700574E-2,1.7984705E-2,3.0933542E-2,1.1885744E-1,1.8286261E-1,3.59401E-2],"categories":[],"categories_nodes":[],"categories_segments":[],"categories_sizes":[],"default_left":[0,0,0,0,0,0,0,0,0,0,0,0,0,0,0,0,0,0,0,0,0,0,0,0,0,0,0,0,0,0,0,0,0],"id":6,"left_children":[1,3,5,7,9,11,13,-1,15,-1,-1,17,19,-1,-1,-1,21,23,25,-1,-1,-1,-1,27,29,31,-1,-1,-1,-1,-1,-1,-1],"loss_changes":[2.7566164E1,3.757307E0,5.6748104E0,1.3535786E0,1.0605543E0,4.621686E0,2.0950575E0,0E0,6.4804745E-1,0E0,0E0,4.5850325E0,2.5623906E-1,0E0,0E0,0E0,1.061632E-1,5.3299E0,3.2824383E0,0E0,0E0,0E0,0E0,2.9039867E0,3.6049519E0,1.7231417E0,0E0,0E0,0E0,0E0,0E0,0E0,0E0],"parents":[2147483647,0,0,1,1,2,2,3,3,4,4,5,5,6,6,8,8,11,11,12,12,16,16,17,17,18,18,23,23,24,24,25,25],"right_children":[2,4,6,8,10,12,14,-1,16,-1,-1,18,20,-1,-1,-1,22,24,26,-1,-1,-1,-1,28,30,32,-1,-1,-1,-1,-1,-1,-1],"split_conditions":[1E0,4E0,6E0,1E0,4E0,8E0,5E0,-9.6988656E-2,1E0,-1.8597027E-2,8.128254E-2,3E0,4E0,1.9636595E-1,2.1915408E-2,-5.5321444E-2,5E0,7E0,1E0,-1.1481675E-2,-7.905838E-2,-1.9164564E-2,1.0586959E-2,2E0,1E0,3E0,-5.3756027E-3,-5.3700574E-2,1.7984705E-2,3.0933542E-2,1.1885744E-1,1.8286261E-1,3.59401E-2],"split_indices":[5,10,8,11,0,11,6,0,4,0,0,5,0,0,0,0,0,0,3,0,0,0,0,11,3,11,0,0,0,0,0,0,0],"split_type":[0,0,0,0,0,0,0,0,0,0,0,0,0,0,0,0,0,0,0,0,0,0,0,0,0,0,0,0,0,0,0,0,0],"sum_hessian":[1.1430896E2,5.0546547E1,6.3762413E1,4.766771E1,2.8788352E0,6.0350468E1,3.4119444E0,9.829232E0,3.7838478E1,1.2784146E0,1.6004206E0,5.6760628E1,3.589841E0,2.1781526E0,1.2337918E0,3.4957626E1,2.8808534E0,4.9982323E1,6.7783046E0,1.1310743E0,2.4587667E0,1.3110446E0,1.5698088E0,2.9753277E1,2.0229046E1,5.038738E0,1.7395668E0,6.355262E0,2.3398014E1,1.28573475E1,7.371699E0,3.3424122E0,1.6963255E0],"tree_param":{"num_deleted":"0","num_feature":"12","num_nodes":"33","size_leaf_vector":"1"}},{"base_weights":[-1.7893543E-2,-7.039826E-1,2.1470137E-1,-7.5158346E-1,7.2333585E-3,3.6301652E-1,-3.9643323E-1,-7.931505E-1,-2.9026392E-1,-1.1474455E-1,4.9966228E-1,-6.625961E-1,-5.7538673E-2,-8.1676245E-2,-2.6164046E-2,3.0146405E-2,-6.749333E-2,2.3267934E-1,-3.7463707E-1,3.4770685E-1,7.866641E-1,-7.938516E-2,-1.9781915E-2,4.3076447E-1,-6.258651E-2,-3.4448647E-1,1.18479185E-1,-4.9857354E-1,2.3534082E-2,2.5195608E-1,9.91324E-1,4.8844042E-1,1.3380953E0,8.106493E-2,-5.624623E-2,-4.838671E-3,-4.003414E-2,-7.076815E-2,-9.102021E-3,3.657312E-2,-6.8189166E-3,1.519202E-1,3.261971E-2,1.4367358E-1,1.8983273E-2,1.716276E-2,1.887073E-1],"categories":[],"categories_nodes":[],"categories_segments":[],"categories_sizes":[],"default_left":[0,0,0,0,0,0,0,0,0,0,0,0,0,0,0,0,0,0,0,0,0,0,0,0,0,0,0,0,0,0,0,0,0,0,0,0,0,0,0,0,0,0,0,0,0,0,0],"id":7,"left_children":[1,3,5,7,-1,9,11,13,15,17,19,21,23,-1,-1,-1,-1,25,27,29,31,-1,-1,33,-1,35,-1,37,-1,39,41,43,45,-1,-1,-1,-1,-1,-1,-1,-1,-1,-1,-1,-1,-1,-1],"loss_changes":[1.850933E1,1.1393089E0,8.0006485E0,3.0192947E-1,0E0,4.645114E0,1.5319185E0,9.854984E-2,1.0845928E0,1.5718026E0,2.1177654E0,4.319029E-1,2.6984038E0,0E0,0E0,0E0,0E0,4.6137676E0,8.5738647E-1,2.070023E0,2.3376284E0,0E0,0E0,2.455603E0,0E0,7.224488E-2,0E0,6.5629673E-1,0E0,1.2673256E0,1.0963812E0,3.5159853E0,3.3962774E0,0E0,0E0,0E0,0E0,0E0,0E0,0E0,0E0,0E0,0E0,0E0,0E0,0E0,0E0],"parents":[2147483647,0,0,1,1,2,2,3,3,5,5,6,6,7,7,8,8,9,9,10,10,11,11,12,12,17,17,18,18,19,19,20,20,23,23,25,25,27,27,29,29,30,30,31,31,32,32],"right_children":[2,4,6,8,-1,10,12,14,16,18,20,22,24,-1,-1,-1,-1,26,28,30,32,-1,-1,34,-1,36,-1,38,-1,40,42,44,46,-1,-1,-1,-1,-1,-1,-1,-1,-1,-1,-1,-1,-1,-1],"split_conditions":[2E0,7E0,8E0,2E0,7.2333585E-3,1E0,5E0,5E0,1E0,4E0,4E0,1E0,3E0,-8.1676245E-2,-2.6164046E-2,3.0146405E-2,-6.749333E-2,3E0,1E0,8E0,1E0,-7.938516E-2,-1.9781915E-2,1E0,-6.258651E-2,2E0,1.18479185E-1,6E0,2.3534082E-2,8E0,6E0,3E0,3E0,8.106493E-2,-5.624623E-2,-4.838671E-3,-4.003414E-2,-7.076815E-2,-9.102021E-3,3.657312E-2,-6.8189166E-3,1.519202E-1,3.261971E-2,1.4367358E-1,1.8983273E-2,1.716276E-2,1.887073E-1],"split_indices":[11,0,11,5,0,5,0,9,11,0,8,8,9,0,0,0,0,9,8,9,3,0,0,8,0,0,0,0,0,0,0,9,9,0,0,0,0,0,0,0,0,0,0,0,0,0,0],"split_type":[0,0,0,0,0,0,0,0,0,0,0,0,0,0,0,0,0,0,0,0,0,0,0,0,0,0,0,0,0,0,0,0,0,0,0,0,0,0,0,0,0,0,0,0,0,0,0],"sum_hessian":[1.1404005E2,2.835986E1,8.568019E1,2.675142E1,1.6084402E0,6.927416E1,1.6406025E1,2.3880379E1,2.8710406E0,1.544241E1,5.3831753E1,8.654073E0,7.751953E0,2.2350777E1,1.529602E0,1.2163148E0,1.6547258E0,6.6531715E0,8.789239E0,3.6642567E1,1.7189186E1,6.1962047E0,2.4578676E0,4.2997108E0,3.4522424E0,4.5395226E0,2.1136487E0,7.4567904E0,1.3324484E0,3.310849E1,3.534075E0,1.2379763E1,4.809424E0,3.2431197E0,1.056591E0,1.0165979E0,3.522925E0,4.4415174E0,3.015273E0,2.4322296E1,8.786194E0,1.2544235E0,2.2796514E0,2.0519352E0,1.0327827E1,1.959183E0,2.8502407E0],"tree_param":{"num_deleted":"0","num_feature":"12","num_nodes":"47","size_leaf_vector":"1"}},{"base_weights":[7.555931E-2,-2.8107136E-1,6.291502E-1,-3.8479203E-1,6.5975595E-1,2.463366E-1,9.813121E-1,-4.857807E-1,6.403115E-1,-1.5184456E-3,1.0392159E0,-4.075313E-2,7.1666116E-1,1.0776012E0,-1.001677E-2,-5.2404964E-1,7.1141236E-2,1.9698456E-1,9.534859E-2,-2.519992E-2,2.8188724E-2,1.7852925E-1,1.552329E-1,-2.609745E-1,3.437773E-1,1.1172464E0,-4.399089E-2,8.742946E-1,1.9871126E-1,-5.5543035E-1,2.6855702E-2,7.2755575E-2,-3.3269938E-2,-5.6319643E-2,7.341154E-2,-9.1057226E-2,3.2972458E-1,1.3573599E0,-6.08963E-1,1.4248665E-1,-2.110556E-2,6.5470856E-1,1.3001822E0,-7.58158E-2,-4.606427E-2,9.9345535E-2,-7.103041E-3,3.0981684E-2,1.78073E-1,-2.1504674E-2,-7.147315E-2,8.136079E-2,3.870178E-3,1.7494312E-1,2.1574814E-2],"categories":[],"categories_nodes":[],"categories_segments":[],"categories_sizes":[],"default_left":[0,0,0,0,0,0,0,0,0,0,0,0,0,0,0,0,0,0,0,0,0,0,0,0,0,0,0,0,0,0,0,0,0,0,0,0,0,0,0,0,0,0,0,0,0,0,0,0,0,0,0,0,0,0,0],"id":8,"left_children":[1,3,5,7,9,11,13,15,17,19,21,23,25,27,-1,29,-1,31,-1,-1,-1,-1,33,35,37,39,-1,41,-1,43,-1,-1,-1,-1,-1,-1,45,47,49,-1,-1,51,53,-1,-1,-1,-1,-1,-1,-1,-1,-1,-1,-1,-1],"loss_changes":[2.2615822E1,7.0667963E0,5.8032913E0,6.886428E0,1.8335903E0,3.1105227E0,2.5051212E0,3.047884E0,6.6291237E-1,3.3088806E-1,2.783321E0,1.3698264E0,4.523902E0,2.1870193E0,0E0,1.5707664E0,0E0,1.3091578E0,0E0,0E0,0E0,0E0,1.752253E0,4.2066236E0,6.5591636E0,3.0576591E0,0E0,9.3790245E-1,0E0,7.1349525E-1,0E0,0E0,0E0,0E0,0E0,0E0,1.6841004E0,8.6129E-1,2.5516748E-3,0E0,0E0,1.4012547E0,2.299161E0,0E0,0E0,0E0,0E0,0E0,0E0,0E0,0E0,0E0,0E0,0E0,0E0],"parents":[2147483647,0,0,1,1,2,2,3,3,4,4,5,5,6,6,7,7,8,8,9,9,10,10,11,11,12,12,13,13,15,15,17,17,22,22,23,23,24,24,25,25,27,27,29,29,36,36,37,37,38,38,41,41,42,42],"right_children":[2,4,6,8,10,12,14,16,18,20,22,24,26,28,-1,30,-1,32,-1,-1,-1,-1,34,36,38,40,-1,42,-1,44,-1,-1,-1,-1,-1,-1,46,48,50,-1,-1,52,54,-1,-1,-1,-1,-1,-1,-1,-1,-1,-1,-1,-1],"split_conditions":[2E0,1E0,5E0,1E0,4E0,4E0,1E0,6E0,5E0,6E0,5E0,2E0,4E0,3E0,-1.001677E-2,3E0,7.1141236E-2,3E0,9.534859E-2,-2.519992E-2,2.8188724E-2,1.7852925E-1,6E0,3E0,3E0,2E0,-4.399089E-2,2E0,1.9871126E-1,3E0,2.6855702E-2,7.2755575E-2,-3.3269938E-2,-5.6319643E-2,7.341154E-2,-9.1057226E-2,2E0,3E0,3E0,1.4248665E-1,-2.110556E-2,1E0,2E0,-7.58158E-2,-4.606427E-2,9.9345535E-2,-7.103041E-3,3.0981684E-2,1.78073E-1,-2.1504674E-2,-7.147315E-2,8.136079E-2,3.870178E-3,1.7494312E-1,2.1574814E-2],"split_indices":[7,4,9,3,9,7,4,10,9,0,9,5,9,5,0,5,0,9,0,0,0,0,9,7,7,10,0,10,0,0,0,0,0,0,0,0,9,9,9,0,0,10,5,0,0,0,0,0,0,0,0,0,0,0,0],"split_type":[0,0,0,0,0,0,0,0,0,0,0,0,0,0,0,0,0,0,0,0,0,0,0,0,0,0,0,0,0,0,0,0,0,0,0,0,0,0,0,0,0,0,0,0,0,0,0,0,0,0,0,0,0,0,0],"sum_hessian":[1.12656845E2,6.881657E1,4.384028E1,6.25156E1,6.300971E0,2.1820286E1,2.2019995E1,5.7388092E1,5.1275043E0,2.6605327E0,3.6404383E0,1.4116696E1,7.703589E0,2.0223032E1,1.796962E0,5.6155323E1,1.2327679E0,2.7970371E0,2.3304675E0,1.4711304E0,1.1894023E0,1.421283E0,2.2191553E0,9.180387E0,4.93631E0,5.74706E0,1.9565295E0,1.8131342E1,2.0916898E0,5.4304543E1,1.8507805E0,1.2107216E0,1.5863155E0,1.0023158E0,1.2168394E0,4.1143155E0,5.066071E0,2.1860104E0,2.7502997E0,4.6073503E0,1.1397092E0,1.363729E1,4.494053E0,1.5071598E1,3.9232944E1,1.3504668E0,3.715604E0,1.1276522E0,1.0583581E0,1.2241925E0,1.5261073E0,1.0585878E1,3.0514112E0,2.7440526E0,1.7500002E0],"tree_param":{"num_deleted":"0","num_feature":"12","num_nodes":"55","size_leaf_vector":"1"}},{"base_weights":[7.290896E-2,-1.5422286E-1,6.0210115E-1,-2.7170733E-1,5.83775E-1,8.829124E-1,3.7779543E-1,-5.279962E-1,-1.1560754E-1,1.8575509E-1,1.4888631E-1,2.560166E-1,1.2092978E0,2.9374698E-2,8.0638003E-1,-6.0434484E-1,2.5033427E-2,-3.5018346E-1,-1.1169079E-2,-4.5125428E-1,6.485981E-1,6.7578566E-1,-6.8029754E-2,1.4698114E-1,1.2053064E-3,-4.909168E-1,2.7975512E-1,-7.1045847E-6,9.7126204E-1,-3.507552E-1,-7.70882E-2,-1.3079649E-1,-7.0573986E-2,1.4968781E-1,-3.3557612E-1,-7.970877E-2,2.621128E-2,1.0580053E0,-2.8609231E-2,-9.833702E-3,1.21688895E-1,-1.1937107E-2,-7.302744E-2,-1.9809137E-1,5.616542E-1,1.1045315E-1,1.6936734E-2,-4.8147675E-2,-1.1058704E-2,-3.8568623E-2,2.1578636E-2,4.5810115E-2,-5.7782508E-3,-5.859853E-2,9.978847E-4,1.4926066E-1,3.196976E-2,4.190023E-2,-7.1977206E-2,9.640001E-2,-1.9921528E-2],"categories":[],"categories_nodes":[],"categories_segments":[],"categories_sizes":[],"default_left":[0,0,0,0,0,0,0,0,0,0,0,0,0,0,0,0,0,0,0,0,0,0,0,0,0,0,0,0,0,0,0,0,0,0,0,0,0,0,0,0,0,0,0,0,0,0,0,0,0,0,0,0,0,0,0,0,0,0,0,0,0],"id":9,"left_children":[1,3,5,7,9,11,13,15,17,19,-1,21,23,25,27,29,-1,31,33,35,37,39,-1,-1,-1,41,43,-1,45,47,-1,49,-1,51,53,-1,-1,55,-1,-1,-1,-1,-1,57,59,-1,-1,-1,-1,-1,-1,-1,-1,-1,-1,-1,-1,-1,-1,-1,-1],"loss_changes":[1.3511485E1,7.0002766E0,1.7910299E0,2.6896024E0,3.741683E0,2.6021109E0,3.0374913E0,1.6811748E0,1.0742679E0,2.9137292E0,0E0,2.8733048E0,2.817359E0,1.7455492E0,1.2173467E0,7.321205E-1,0E0,9.626906E-1,1.693201E0,1.2773552E0,2.429981E0,2.1058426E0,0E0,0E0,0E0,3.0179536E-1,1.3197446E0,0E0,6.2519836E-1,2.9978168E-1,0E0,9.3054605E-1,0E0,1.4175124E0,9.35624E-1,0E0,0E0,8.3153534E-1,0E0,0E0,0E0,0E0,0E0,1.6111948E0,1.9992485E0,0E0,0E0,0E0,0E0,0E0,0E0,0E0,0E0,0E0,0E0,0E0,0E0,0E0,0E0,0E0,0E0],"parents":[2147483647,0,0,1,1,2,2,3,3,4,4,5,5,6,6,7,7,8,8,9,9,11,11,12,12,13,13,14,14,15,15,17,17,18,18,19,19,20,20,21,21,25,25,26,26,28,28,29,29,31,31,33,33,34,34,37,37,43,43,44,44],"right_children":[2,4,6,8,10,12,14,16,18,20,-1,22,24,26,28,30,-1,32,34,36,38,40,-1,-1,-1,42,44,-1,46,48,-1,50,-1,52,54,-1,-1,56,-1,-1,-1,-1,-1,58,60,-1,-1,-1,-1,-1,-1,-1,-1,-1,-1,-1,-1,-1,-1,-1,-1],"split_conditions":[1E0,7E0,6E0,2E0,3E0,4E0,3E0,5E0,2E0,1E0,1.4888631E-1,3E0,4E0,3E0,7E0,4E0,2.5033427E-2,1E0,8E0,2E0,2E0,5E0,-6.8029754E-2,1.4698114E-1,1.2053064E-3,8E0,5E0,-7.1045847E-6,9E0,3E0,-7.70882E-2,8E0,-7.0573986E-2,4E0,5E0,-7.970877E-2,2.621128E-2,8E0,-2.8609231E-2,-9.833702E-3,1.21688895E-1,-1.1937107E-2,-7.302744E-2,2E0,4E0,1.1045315E-1,1.6936734E-2,-4.8147675E-2,-1.1058704E-2,-3.8568623E-2,2.1578636E-2,4.5810115E-2,-5.7782508E-3,-5.859853E-2,9.978847E-4,1.4926066E-1,3.196976E-2,4.190023E-2,-7.1977206E-2,9.640001E-2,-1.9921528E-2],"split_indices":[1,0,0,11,6,0,11,9,9,2,0,11,6,8,0,0,0,7,11,6,7,9,0,0,0,0,9,0,0,0,0,11,0,0,0,0,0,0,0,0,0,0,0,9,7,0,0,0,0,0,0,0,0,0,0,0,0,0,0,0,0],"split_type":[0,0,0,0,0,0,0,0,0,0,0,0,0,0,0,0,0,0,0,0,0,0,0,0,0,0,0,0,0,0,0,0,0,0,0,0,0,0,0,0,0,0,0,0,0,0,0,0,0,0,0,0,0,0,0,0,0,0,0,0,0],"sum_hessian":[1.106392E2,7.79089E1,3.27303E1,6.775463E1,1.0154266E1,1.3230572E1,1.949973E1,2.4745071E1,4.3009556E1,7.8898673E0,2.2643993E0,5.1408405E0,8.089731E0,1.1345151E1,8.154578E0,2.273816E1,2.0069127E0,1.25248575E1,3.04847E1,3.3307729E0,4.5590944E0,3.7416363E0,1.3992043E0,6.4570518E0,1.6326795E0,3.3737667E0,7.9713845E0,1.5538999E0,6.6006784E0,1.0244623E1,1.2493535E1,8.591536E0,3.933322E0,2.073958E1,9.745119E0,2.1642203E0,1.1665525E0,3.078665E0,1.4804293E0,1.8760104E0,1.8656257E0,1.9090831E0,1.4646834E0,3.0680451E0,4.903339E0,5.3364024E0,1.264276E0,5.9832444E0,4.2613792E0,4.885635E0,3.7059002E0,7.854903E0,1.2884677E1,5.247033E0,4.4980855E0,1.294818E0,1.783847E0,1.4956594E0,1.5723859E0,3.032689E0,1.87065E0],"tree_param":{"num_deleted":"0","num_feature":"12","num_nodes":"61","size_leaf_vector":"1"}},{"base_weights":[-1.0591954E-1,-3.0118763E-1,3.4464914E-1,-3.9107686E-1,8.6030066E-1,2.3336443E-1,9.748334E-1,-4.4173923E-1,3.7737286E-1,1.4818561E-1,1.9691585E-1,1.595612E-1,1.14206634E-1,1.252077E-1,1.3760238E-2,-6.004639E-1,-1.9081788E-1,1.0559302E-1,-4.7753617E-2,-4.8475006E-1,8.9535475E-2,-7.295345E-2,6.112264E-1,-8.8517554E-2,-5.393679E-1,-3.4667027E-1,1.981281E-1,-6.0274195E-2,-1.2235514E-2,-3.00226E-1,4.7686806E-1,3.145847E-2,1.1101462E0,-2.5771258E-2,-5.901877E-2,-1.8584533E-2,-8.760304E-2,-2.426364E-2,7.56847E-2,-5.8094144E-2,3.694361E-2,1.1810485E-2,1.0887319E-1,3.625087E-2,-6.634172E-2,1.2680621E-1,2.270007E-2],"categories":[],"categories_nodes":[],"categories_segments":[],"categories_sizes":[],"default_left":[0,0,0,0,0,0,0,0,0,0,0,0,0,0,0,0,0,0,0,0,0,0,0,0,0,0,0,0,0,0,0,0,0,0,0,0,0,0,0,0,0,0,0,0,0,0,0],"id":10,"left_children":[1,3,5,7,9,11,13,15,17,19,-1,21,-1,-1,-1,23,25,-1,-1,27,-1,29,31,-1,33,35,37,-1,-1,39,41,43,45,-1,-1,-1,-1,-1,-1,-1,-1,-1,-1,-1,-1,-1,-1],"loss_changes":[9.960296E0,8.552172E0,2.1806407E0,3.036952E0,4.418403E0,1.8632041E0,9.509196E-1,2.6584597E0,3.462344E0,2.663186E0,0E0,3.1290536E0,0E0,0E0,0E0,2.5632095E-1,1.7928972E0,0E0,0E0,6.311208E-2,0E0,2.6776593E0,2.8831246E0,0E0,3.816538E-1,1.5969596E0,2.3441944E0,0E0,0E0,3.0276694E0,1.258365E0,1.5505974E0,4.6425962E-1,0E0,0E0,0E0,0E0,0E0,0E0,0E0,0E0,0E0,0E0,0E0,0E0,0E0,0E0],"parents":[2147483647,0,0,1,1,2,2,3,3,4,4,5,5,6,6,7,7,8,8,9,9,11,11,15,15,16,16,19,19,21,21,22,22,24,24,25,25,26,26,29,29,30,30,31,31,32,32],"right_children":[2,4,6,8,10,12,14,16,18,20,-1,22,-1,-1,-1,24,26,-1,-1,28,-1,30,32,-1,34,36,38,-1,-1,40,42,44,46,-1,-1,-1,-1,-1,-1,-1,-1,-1,-1,-1,-1,-1,-1],"split_conditions":[3E0,4E0,6E0,3E0,4E0,4E0,5E0,1E0,1E0,6E0,1.9691585E-1,1E0,1.14206634E-1,1.252077E-1,1.3760238E-2,2E0,7E0,1.0559302E-1,-4.7753617E-2,5E0,8.9535475E-2,7E0,3E0,-8.8517554E-2,3E0,6E0,2E0,-6.0274195E-2,-1.2235514E-2,1E0,5E0,2E0,6E0,-2.5771258E-2,-5.901877E-2,-1.8584533E-2,-8.760304E-2,-2.426364E-2,7.56847E-2,-5.8094144E-2,3.694361E-2,1.1810485E-2,1.0887319E-1,3.625087E-2,-6.634172E-2,1.2680621E-1,2.270007E-2],"split_indices":[8,10,8,5,9,5,6,8,6,10,0,3,0,0,0,0,0,0,0,0,0,9,6,0,0,0,5,0,0,10,8,10,9,0,0,0,0,0,0,0,0,0,0,0,0,0,0],"split_type":[0,0,0,0,0,0,0,0,0,0,0,0,0,0,0,0,0,0,0,0,0,0,0,0,0,0,0,0,0,0,0,0,0,0,0,0,0,0,0,0,0,0,0,0,0,0,0],"sum_hessian":[1.110289E2,7.769073E1,3.3338177E1,7.272568E1,4.965046E0,2.9499203E1,3.838975E0,6.862643E1,4.09925E0,3.7137146E0,1.2513317E0,2.8370584E1,1.1286185E0,2.5117335E0,1.3272415E0,4.1182613E1,2.7443815E1,2.1542466E0,1.9450032E0,2.2006965E0,1.513018E0,1.9282528E1,9.088057E0,4.8929334E0,3.628968E1,1.9670464E1,7.7733507E0,1.159845E0,1.0408515E0,1.3964261E1,5.3182673E0,4.69514E0,4.3929167E0,6.4749675E0,2.9814713E1,1.612316E1,3.5473042E0,4.661608E0,3.1117425E0,9.932955E0,4.0313063E0,4.104588E0,1.2136793E0,3.5040596E0,1.1910803E0,3.3568313E0,1.0360851E0],"tree_param":{"num_deleted":"0","num_feature":"12","num_nodes":"47","size_leaf_vector":"1"}},{"base_weights":[3.2165967E-2,-2.788575E-1,4.5266205E-1,-3.57839E-1,6.0700434E-1,1.1736269E-1,7.75887E-1,-8.538408E-1,-2.521778E-1,8.611774E-1,1.3390827E-2,-9.6709736E-2,4.7786808E-1,1.1076629E0,4.205019E-1,-9.3400456E-2,-1.3596742E-2,-3.0607173E-1,1.2342546E-1,1.6535766E-2,1.2577258E-1,3.5580412E-1,-5.6195896E-2,1.0799611E0,-5.195898E-2,1.3115084E0,3.0966488E-1,1.3654648E-2,9.4571066E-1,-1.086825E-1,-3.713326E-1,3.7614712E-1,-1.5607253E-1,-5.390789E-1,8.112821E-1,3.895535E-2,1.3492297E-1,-8.0405265E-2,5.1501966E-1,6.5884084E-1,1.482842E-1,-3.688371E-2,8.984126E-2,-4.336286E-1,8.45392E-1,2.617957E-1,1.6232793E-1,-5.1128354E-2,3.876932E-2,-2.1692151E-2,-5.1015683E-2,6.26555E-2,1.6565869E-3,-4.054178E-2,2.2575686E-2,-6.659388E-2,-1.2352587E-2,1.2610011E-1,2.6492774E-3,-1.2508071E-2,1.1498536E-1,1.05605E-1,2.8016393E-3,-8.116003E-2,-2.9922586E-3,1.0722575E-1,2.204888E-2,-1.7407632E-2,7.965764E-2],"categories":[],"categories_nodes":[],"categories_segments":[],"categories_sizes":[],"default_left":[0,0,0,0,0,0,0,0,0,0,0,0,0,0,0,0,0,0,0,0,0,0,0,0,0,0,0,0,0,0,0,0,0,0,0,0,0,0,0,0,0,0,0,0,0,0,0,0,0,0,0,0,0,0,0,0,0,0,0,0,0,0,0,0,0,0,0,0,0],"id":11,"left_children":[1,3,5,7,9,11,13,15,17,19,-1,21,23,25,27,-1,-1,29,31,-1,-1,33,-1,35,37,39,41,43,45,47,49,51,53,55,57,-1,-1,-1,59,61,-1,-1,-1,63,65,67,-1,-1,-1,-1,-1,-1,-1,-1,-1,-1,-1,-1,-1,-1,-1,-1,-1,-1,-1,-1,-1,-1,-1],"loss_changes":[1.4692698E1,4.739974E0,5.0824585E0,2.9280834E0,5.6557584E-1,1.9453744E0,2.3790636E0,4.5504808E-1,1.0674264E0,7.575817E-1,0E0,3.6256883E0,3.0346234E0,1.5241442E0,2.8207436E0,0E0,0E0,5.3635883E-1,5.598811E-1,0E0,0E0,4.04914E0,0E0,2.9541302E-1,2.9387634E0,4.542446E-2,1.8187969E0,3.5240448E0,2.2506747E0,2.7037919E0,6.016989E-1,3.515318E-1,4.7958112E-1,1.06975555E-1,2.1800146E0,0E0,0E0,0E0,1.7632765E0,8.9767194E-1,0E0,0E0,0E0,9.187461E-1,2.324233E-1,1.086387E0,0E0,0E0,0E0,0E0,0E0,0E0,0E0,0E0,0E0,0E0,0E0,0E0,0E0,0E0,0E0,0E0,0E0,0E0,0E0,0E0,0E0,0E0,0E0],"parents":[2147483647,0,0,1,1,2,2,3,3,4,4,5,5,6,6,7,7,8,8,9,9,11,11,12,12,13,13,14,14,17,17,18,18,21,21,23,23,24,24,25,25,26,26,27,27,28,28,29,29,30,30,31,31,32,32,33,33,34,34,38,38,39,39,43,43,44,44,45,45],"right_children":[2,4,6,8,10,12,14,16,18,20,-1,22,24,26,28,-1,-1,30,32,-1,-1,34,-1,36,38,40,42,44,46,48,50,52,54,56,58,-1,-1,-1,60,62,-1,-1,-1,64,66,68,-1,-1,-1,-1,-1,-1,-1,-1,-1,-1,-1,-1,-1,-1,-1,-1,-1,-1,-1,-1,-1,-1,-1],"split_conditions":[2E0,4E0,5E0,1E0,6E0,2E0,3E0,2E0,6E0,4E0,1.3390827E-2,3E0,3E0,5E0,1E0,-9.3400456E-2,-1.3596742E-2,3E0,7E0,1.6535766E-2,1.2577258E-1,3E0,-5.6195896E-2,3E0,1E0,6E0,6E0,5E0,2E0,3E0,3E0,1E0,8E0,1E0,6E0,3.895535E-2,1.3492297E-1,-8.0405265E-2,1E0,3E0,1.482842E-1,-3.688371E-2,8.984126E-2,2E0,7E0,4E0,1.6232793E-1,-5.1128354E-2,3.876932E-2,-2.1692151E-2,-5.1015683E-2,6.26555E-2,1.6565869E-3,-4.054178E-2,2.2575686E-2,-6.659388E-2,-1.2352587E-2,1.2610011E-1,2.6492774E-3,-1.2508071E-2,1.1498536E-1,1.05605E-1,2.8016393E-3,-8.116003E-2,-2.9922586E-3,1.0722575E-1,2.204888E-2,-1.7407632E-2,7.965764E-2],"split_indices":[8,10,9,11,11,5,11,5,9,9,0,9,7,8,3,0,0,11,9,0,0,7,0,9,2,9,8,8,5,9,9,7,9,1,11,0,0,0,10,7,0,0,0,5,9,7,0,0,0,0,0,0,0,0,0,0,0,0,0,0,0,0,0,0,0,0,0,0,0],"split_type":[0,0,0,0,0,0,0,0,0,0,0,0,0,0,0,0,0,0,0,0,0,0,0,0,0,0,0,0,0,0,0,0,0,0,0,0,0,0,0,0,0,0,0,0,0,0,0,0,0,0,0,0,0,0,0,0,0,0,0,0,0,0,0,0,0,0,0,0,0],"sum_hessian":[1.10377945E2,6.3641678E1,4.6736267E1,5.897927E1,4.6624055E0,2.360872E1,2.3127548E1,9.114139E0,4.9865135E1,2.4993286E0,2.1630769E0,1.5271851E1,8.33687E0,1.0866315E1,1.2261232E1,7.9277854E0,1.1863533E0,4.3769875E1,6.095258E0,1.4216919E0,1.0776367E0,7.8611374E0,7.4107127E0,3.4162884E0,4.920582E0,8.1427765E0,2.7235389E0,7.487286E0,4.7739463E0,1.1537799E1,3.223208E1,3.019361E0,3.075897E0,2.5896587E0,5.2714787E0,1.6450562E0,1.771232E0,1.9352925E0,2.9852893E0,2.7006092E0,5.442167E0,1.4388545E0,1.2846843E0,5.180186E0,2.3071003E0,3.065803E0,1.7081432E0,6.354086E0,5.1837134E0,1.6472569E1,1.5759508E1,1.3422073E0,1.6771537E0,1.8233931E0,1.2525039E0,1.5223727E0,1.067286E0,2.9653819E0,2.3060968E0,1.886306E0,1.0989833E0,1.2435244E0,1.4570849E0,2.1535444E0,3.0266416E0,1.1674061E0,1.1396943E0,2.0607128E0,1.0050902E0],"tree_param":{"num_deleted":"0","num_feature":"12","num_nodes":"69","size_leaf_vector":"1"}},{"base_weights":[7.380858E-2,-2.2099508E-1,4.5064452E-1,-3.2221285E-1,5.765138E-1,2.6558596E-1,7.223409E-1,-3.6284044E-1,5.077509E-2,7.279796E-1,1.3799497E-1,1.2822233E-1,1.1361964E-1,2.7564442E-1,9.147369E-1,-3.9385024E-1,3.731885E-2,1.1489894E-1,2.1936604E-1,-6.1149687E-2,8.520022E-2,1.3187153E-2,5.8576703E-1,7.9664156E-2,-8.322933E-2,4.4003588E-1,1.0205008E0,-7.299005E-1,-3.41288E-1,-3.3840213E-2,8.3852634E-2,3.2728872E-1,-1.0369602E-1,-6.988558E-2,1.2053454E-1,-7.23405E-2,4.1732177E-1,8.979097E-2,-1.2055349E-2,7.160928E-1,1.3513738E-1,-8.502325E-2,-1.1539494E-2,-2.8839126E-2,-7.064416E-2,-4.731304E-3,7.6107256E-2,7.872038E-3,-8.89514E-2,7.874766E-2,-2.1441486E-2,2.9967453E-3,1.0025894E-1],"categories":[],"categories_nodes":[],"categories_segments":[],"categories_sizes":[],"default_left":[0,0,0,0,0,0,0,0,0,0,0,0,0,0,0,0,0,0,0,0,0,0,0,0,0,0,0,0,0,0,0,0,0,0,0,0,0,0,0,0,0,0,0,0,0,0,0,0,0,0,0,0,0],"id":12,"left_children":[1,3,5,7,9,11,13,15,-1,17,19,21,-1,23,25,27,-1,-1,29,-1,-1,31,33,-1,35,37,39,41,43,-1,-1,45,47,-1,-1,-1,49,-1,-1,51,-1,-1,-1,-1,-1,-1,-1,-1,-1,-1,-1,-1,-1],"loss_changes":[1.2379901E1,5.246402E0,2.2642727E0,2.0817266E0,3.923254E-1,3.518421E0,1.3988314E0,1.3847351E0,0E0,8.786793E-1,2.200594E0,1.4444765E0,0E0,1.415205E0,2.034092E-1,6.7865944E-1,0E0,0E0,1.5364854E0,0E0,0E0,8.8093245E-1,5.235966E0,0E0,1.9609069E0,1.1672964E0,2.6377678E-2,3.6226797E-1,7.0985556E-1,0E0,0E0,1.0918026E0,2.589075E0,0E0,0E0,0E0,9.965612E-1,0E0,0E0,1.3985791E0,0E0,0E0,0E0,0E0,0E0,0E0,0E0,0E0,0E0,0E0,0E0,0E0,0E0],"parents":[2147483647,0,0,1,1,2,2,3,3,4,4,5,5,6,6,7,7,9,9,10,10,11,11,13,13,14,14,15,15,18,18,21,21,22,22,24,24,25,25,26,26,27,27,28,28,31,31,32,32,36,36,39,39],"right_children":[2,4,6,8,10,12,14,16,-1,18,20,22,-1,24,26,28,-1,-1,30,-1,-1,32,34,-1,36,38,40,42,44,-1,-1,46,48,-1,-1,-1,50,-1,-1,52,-1,-1,-1,-1,-1,-1,-1,-1,-1,-1,-1,-1,-1],"split_conditions":[2E0,1E0,2E0,3E0,8E0,6E0,4E0,7E0,5.077509E-2,1E0,1E0,8E0,1.1361964E-1,3E0,3E0,2E0,3.731885E-2,1.1489894E-1,7E0,-6.1149687E-2,8.520022E-2,4E0,3E0,7.9664156E-2,3E0,8E0,1E0,1E0,5E0,-3.3840213E-2,8.3852634E-2,3E0,5E0,-6.988558E-2,1.2053454E-1,-7.23405E-2,4E0,8.979097E-2,-1.2055349E-2,7E0,1.3513738E-1,-8.502325E-2,-1.1539494E-2,-2.8839126E-2,-7.064416E-2,-4.731304E-3,7.6107256E-2,7.872038E-3,-8.89514E-2,7.874766E-2,-2.1441486E-2,2.9967453E-3,1.0025894E-1],"split_indices":[8,3,5,5,0,8,9,9,0,6,2,0,0,7,8,0,0,0,0,0,0,0,8,0,6,0,3,6,9,0,0,6,8,0,0,0,6,0,0,0,0,0,0,0,0,0,0,0,0,0,0,0,0],"split_type":[0,0,0,0,0,0,0,0,0,0,0,0,0,0,0,0,0,0,0,0,0,0,0,0,0,0,0,0,0,0,0,0,0,0,0,0,0,0,0,0,0,0,0,0,0,0,0,0,0,0,0,0,0],"sum_hessian":[1.0954119E2,6.169216E1,4.784903E1,5.527303E1,6.4191337E0,2.9638851E1,1.821018E1,5.323018E1,2.042848E0,4.2805367E0,2.1385975E0,2.6590689E1,3.0481617E0,6.214447E0,1.1995733E1,5.1524296E1,1.7058827E0,1.6531026E0,2.6274338E0,1.1134167E0,1.0251807E0,2.2070564E1,4.5201254E0,2.037156E0,4.177291E0,3.1259682E0,8.869765E0,5.2260103E0,4.6298286E1,1.6207958E0,1.0066379E0,5.4973454E0,1.657322E1,1.4291003E0,3.091025E0,1.6376348E0,2.5396564E0,1.3894113E0,1.736557E0,6.2676706E0,2.6020947E0,4.0494466E0,1.1765637E0,4.2003387E1,4.2949E0,3.427981E0,2.0693645E0,1.4181102E1,2.392116E0,1.445919E0,1.0937374E0,2.1715834E0,4.096087E0],"tree_param":{"num_deleted":"0","num_feature":"12","num_nodes":"53","size_leaf_vector":"1"}},{"base_weights":[-3.959974E-2,-1.700826E-1,4.6369934E-1,-7.692305E-1,-8.85016E-2,5.643428E-1,-7.110921E-2,-8.3744764E-1,-7.815017E-3,-2.1863043E-1,2.0298645E-1,3.0480844E-1,1.0172977E0,-9.1308184E-2,-2.8104246E-2,-2.8152972E-1,1.7824472E-1,2.663196E-1,-5.819121E-2,-2.3043344E-2,6.529012E-1,3.9872336E-1,1.5586667E-1,-4.131276E-1,-1.08313054E-1,7.411198E-1,-3.3777216E-1,4.457362E-1,8.360728E-2,4.9088222E-1,-3.7970737E-1,8.4016025E-1,-2.3895087E-2,-4.5442868E-2,1.1485179E-1,-3.3194926E-2,-8.311083E-2,-2.1709524E-2,3.3796407E-2,1.8794622E-2,9.286132E-2,-6.0386308E-2,3.001163E-2,6.451146E-2,-9.361134E-3,-3.139059E-2,4.5382664E-2,9.47217E-2,-2.8438538E-2,-5.968338E-2,3.1588193E-2,2.3837952E-2,1.2949723E-1],"categories":[],"categories_nodes":[],"categories_segments":[],"categories_sizes":[],"default_left":[0,0,0,0,0,0,0,0,0,0,0,0,0,0,0,0,0,0,0,0,0,0,0,0,0,0,0,0,0,0,0,0,0,0,0,0,0,0,0,0,0,0,0,0,0,0,0,0,0,0,0,0,0],"id":13,"left_children":[1,3,5,7,9,11,-1,13,-1,15,17,19,21,-1,-1,23,25,27,-1,29,31,33,-1,35,37,39,41,43,45,47,49,51,-1,-1,-1,-1,-1,-1,-1,-1,-1,-1,-1,-1,-1,-1,-1,-1,-1,-1,-1,-1,-1],"loss_changes":[7.3271785E0,4.251852E0,3.1197171E0,4.2775774E-1,3.0378244E0,2.2450185E0,0E0,1.3976383E-1,0E0,1.4242074E0,1.3915658E0,1.754901E0,1.8865643E0,0E0,0E0,1.0471256E0,2.6152978E0,7.39812E-1,0E0,1.8025192E0,1.4413815E0,3.6175127E0,0E0,6.356573E-1,1.1431113E0,2.6184964E-1,1.0188636E0,1.321696E0,2.0520048E0,1.7015773E0,1.0597708E0,1.4322681E0,0E0,0E0,0E0,0E0,0E0,0E0,0E0,0E0,0E0,0E0,0E0,0E0,0E0,0E0,0E0,0E0,0E0,0E0,0E0,0E0,0E0],"parents":[2147483647,0,0,1,1,2,2,3,3,4,4,5,5,7,7,9,9,10,10,11,11,12,12,15,15,16,16,17,17,19,19,20,20,21,21,23,23,24,24,25,25,26,26,27,27,28,28,29,29,30,30,31,31],"right_children":[2,4,6,8,10,12,-1,14,-1,16,18,20,22,-1,-1,24,26,28,-1,30,32,34,-1,36,38,40,42,44,46,48,50,52,-1,-1,-1,-1,-1,-1,-1,-1,-1,-1,-1,-1,-1,-1,-1,-1,-1,-1,-1,-1,-1],"split_conditions":[3E0,1E0,9E0,2E0,5E0,1E0,-7.110921E-2,1E0,-7.815017E-3,1E0,8E0,5E0,1E0,-9.1308184E-2,-2.8104246E-2,5E0,2E0,3E0,-5.819121E-2,5E0,7E0,5E0,1.5586667E-1,2E0,2E0,6E0,1E0,8E0,1E0,5E0,8E0,6E0,-2.3895087E-2,-4.5442868E-2,1.1485179E-1,-3.3194926E-2,-8.311083E-2,-2.1709524E-2,3.3796407E-2,1.8794622E-2,9.286132E-2,-6.0386308E-2,3.001163E-2,6.451146E-2,-9.361134E-3,-3.139059E-2,4.5382664E-2,9.47217E-2,-2.8438538E-2,-5.968338E-2,3.1588193E-2,2.3837952E-2,1.2949723E-1],"split_indices":[6,11,9,10,9,2,0,2,0,3,11,7,10,0,0,0,7,11,0,0,8,9,0,7,10,11,10,0,3,9,0,11,0,0,0,0,0,0,0,0,0,0,0,0,0,0,0,0,0,0,0,0,0],"split_type":[0,0,0,0,0,0,0,0,0,0,0,0,0,0,0,0,0,0,0,0,0,0,0,0,0,0,0,0,0,0,0,0,0,0,0,0,0,0,0,0,0,0,0,0,0,0,0,0,0,0,0,0,0],"sum_hessian":[1.0937157E2,8.737994E1,2.199163E1,9.46176E0,7.7918175E1,2.0734911E1,1.2567204E0,8.418924E0,1.042835E0,5.404213E1,2.3876045E1,1.4245467E1,6.4894433E0,6.847132E0,1.5717926E0,4.6899788E1,7.1423416E0,2.2704706E1,1.1713387E0,7.816904E0,6.428563E0,3.839218E0,2.6502254E0,2.5864628E1,2.103516E1,3.2074258E0,3.9349158E0,1.0729345E1,1.1975362E1,3.0482678E0,4.768636E0,5.360912E0,1.0676516E0,1.9800974E0,1.8591205E0,2.3160645E1,2.7039828E0,1.7325523E1,3.7096376E0,1.3188256E0,1.8886002E0,2.814293E0,1.1206228E0,7.690374E0,3.038971E0,5.848162E0,6.1271996E0,1.7792057E0,1.2690622E0,3.7424226E0,1.0262135E0,2.9636762E0,2.3972354E0],"tree_param":{"num_deleted":"0","num_feature":"12","num_nodes":"53","size_leaf_vector":"1"}},{"base_weights":[4.408189E-2,-7.733215E-1,1.3280247E-1,-8.421208E-1,-6.806355E-3,-1.0272739E-2,4.514247E-1,-9.243854E-2,-1.379702E-2,-1.0441042E-1,2.6385263E-1,-1.4114462E-1,5.7185733E-1,-1.368663E-1,7.220236E-2,4.8917684E-1,-1.7383634E-1,-4.2078388E-1,3.5077702E-2,3.599362E-1,7.668103E-1,-3.5574892E-1,-7.05227E-2,6.9622606E-1,-2.763075E-2,-8.8930264E-2,7.090684E-1,4.9970574E-3,-7.217972E-2,6.16969E-1,-1.2394709E-1,3.4260258E-1,1.361303E-1,-4.494286E-2,1.6394243E-2,6.741105E-3,-2.9092828E-2,2.8035937E-2,1.0695022E-1,9.5577106E-2,1.3757368E-2,-2.4481822E-2,7.77956E-2,-3.2390084E-2,1.1657254E-2,-1.5408616E-2,5.94902E-2],"categories":[],"categories_nodes":[],"categories_segments":[],"categories_sizes":[],"default_left":[0,0,0,0,0,0,0,0,0,0,0,0,0,0,0,0,0,0,0,0,0,0,0,0,0,0,0,0,0,0,0,0,0,0,0,0,0,0,0,0,0,0,0,0,0,0,0],"id":14,"left_children":[1,3,5,7,-1,9,11,-1,-1,13,15,17,19,21,-1,23,25,27,-1,29,31,33,35,37,-1,-1,39,-1,-1,41,43,45,-1,-1,-1,-1,-1,-1,-1,-1,-1,-1,-1,-1,-1,-1,-1],"loss_changes":[7.7871885E0,4.532051E-1,4.4011035E0,4.2267895E-1,0E0,1.7702717E0,2.215119E0,0E0,0E0,1.4664061E0,1.815527E0,9.5286053E-1,7.591181E-1,6.995353E-1,0E0,2.0698276E0,4.863544E0,6.293599E-1,0E0,1.8039603E0,2.6015053E0,6.267135E-1,1.2217021E0,1.1916156E0,0E0,0E0,3.698566E-1,0E0,0E0,1.4721541E0,3.095373E-1,1.1487676E0,0E0,0E0,0E0,0E0,0E0,0E0,0E0,0E0,0E0,0E0,0E0,0E0,0E0,0E0,0E0],"parents":[2147483647,0,0,1,1,2,2,3,3,5,5,6,6,9,9,10,10,11,11,12,12,13,13,15,15,16,16,17,17,19,19,20,20,21,21,22,22,23,23,26,26,29,29,30,30,31,31],"right_children":[2,4,6,8,-1,10,12,-1,-1,14,16,18,20,22,-1,24,26,28,-1,30,32,34,36,38,-1,-1,40,-1,-1,42,44,46,-1,-1,-1,-1,-1,-1,-1,-1,-1,-1,-1,-1,-1,-1,-1],"split_conditions":[1E0,3E0,7E0,2E0,-6.806355E-3,1E0,1E0,-9.243854E-2,-1.379702E-2,4E0,3E0,2E0,6E0,3E0,7.220236E-2,6E0,2E0,8E0,3.5077702E-2,1E0,1E0,1E0,1E0,1E0,-2.763075E-2,-8.8930264E-2,6E0,4.9970574E-3,-7.217972E-2,2E0,1E0,1E0,1.361303E-1,-4.494286E-2,1.6394243E-2,6.741105E-3,-2.9092828E-2,2.8035937E-2,1.0695022E-1,9.5577106E-2,1.3757368E-2,-2.4481822E-2,7.77956E-2,-3.2390084E-2,1.1657254E-2,-1.5408616E-2,5.94902E-2],"split_indices":[11,10,0,5,0,1,6,0,0,7,11,10,11,0,0,0,5,0,0,3,3,5,6,10,0,0,0,0,0,6,2,2,0,0,0,0,0,0,0,0,0,0,0,0,0,0,0],"split_type":[0,0,0,0,0,0,0,0,0,0,0,0,0,0,0,0,0,0,0,0,0,0,0,0,0,0,0,0,0,0,0,0,0,0,0,0,0,0,0,0,0,0,0,0,0,0,0],"sum_hessian":[1.04962975E2,9.521628E0,9.5441345E1,8.49852E0,1.0231085E0,6.653293E1,2.8908419E1,7.3294663E0,1.1690539E0,4.998622E1,1.6546707E1,4.8538513E0,2.4054567E1,4.8900192E1,1.0860287E0,1.0845672E1,5.7010355E0,3.1868544E0,1.6669971E0,1.2889487E1,1.1165079E1,1.03595295E1,3.8540665E1,8.607878E0,2.2377937E0,3.145123E0,2.5559125E0,1.5682545E0,1.6185999E0,8.238345E0,4.651143E0,7.4356046E0,3.729475E0,8.891879E0,1.4676508E0,2.4132355E1,1.440831E1,4.8999386E0,3.7079396E0,1.3155925E0,1.2403198E0,1.2147696E0,7.023575E0,2.3504484E0,2.3006947E0,2.6358385E0,4.799766E0],"tree_param":{"num_deleted":"0","num_feature":"12","num_nodes":"47","size_leaf_vector":"1"}},{"base_weights":[3.411226E-2,-8.091011E-2,4.9617878E-1,-1.5281196E-1,8.5880774E-1,2.4829173E-1,9.2061996E-1,-2.635624E-1,2.6294026E-1,-2.2473212E-2,1.198519E0,-8.178942E-3,7.1889967E-1,1.0762006E0,7.3731146E-3,-3.4140835E-3,-3.979588E-1,-1.9165032E-2,6.0827065E-1,1.5376235E-2,1.5692568E-1,-2.0617001E-1,4.5022622E-1,3.4243E-1,9.921632E-2,5.271559E-1,1.3781737E-1,-2.9522476E-1,2.8055364E-1,-4.5692047E-1,-3.559496E-2,-2.0524833E-1,5.5583443E-2,9.524316E-1,7.468802E-2,1.0696326E-1,-8.501321E-2,6.457491E-2,6.6869184E-3,6.0851075E-2,-1.826565E-2,7.758721E-2,1.1514853E-3,-7.034189E-2,-1.3522013E-2,4.378488E-2,-6.465778E-2,-2.9441321E-2,-6.2473204E-2,4.108963E-2,-5.793729E-2,-3.481211E-2,2.6585264E-2,-6.945178E-3,1.4934538E-1,4.4996258E-2,-3.861939E-2,3.6153365E-2,-4.1204777E-2],"categories":[],"categories_nodes":[],"categories_segments":[],"categories_sizes":[],"default_left":[0,0,0,0,0,0,0,0,0,0,0,0,0,0,0,0,0,0,0,0,0,0,0,0,0,0,0,0,0,0,0,0,0,0,0,0,0,0,0,0,0,0,0,0,0,0,0,0,0,0,0,0,0,0,0,0,0,0,0],"id":15,"left_children":[1,3,5,7,9,11,13,15,17,-1,19,21,23,25,-1,27,29,31,33,-1,-1,35,37,39,-1,41,-1,43,45,47,49,51,-1,53,55,57,-1,-1,-1,-1,-1,-1,-1,-1,-1,-1,-1,-1,-1,-1,-1,-1,-1,-1,-1,-1,-1,-1,-1],"loss_changes":[5.751939E0,6.003463E0,2.0398712E0,3.8256726E0,2.5986996E0,1.8139772E0,9.193921E-1,2.2684278E0,1.7322057E0,0E0,1.6859288E0,1.062593E0,2.0502782E-1,3.229952E-1,0E0,1.9988824E0,8.98118E-1,1.2578804E0,1.3927045E0,0E0,0E0,1.7339313E0,2.2193831E-1,6.3566685E-1,0E0,4.8682177E-1,0E0,6.815275E-1,2.066872E0,8.1753826E-1,1.9554852E0,6.8529695E-1,0E0,2.7357297E0,9.02031E-1,9.906591E-1,0E0,0E0,0E0,0E0,0E0,0E0,0E0,0E0,0E0,0E0,0E0,0E0,0E0,0E0,0E0,0E0,0E0,0E0,0E0,0E0,0E0,0E0,0E0],"parents":[2147483647,0,0,1,1,2,2,3,3,4,4,5,5,6,6,7,7,8,8,10,10,11,11,12,12,13,13,15,15,16,16,17,17,18,18,21,21,22,22,23,23,25,25,27,27,28,28,29,29,30,30,31,31,33,33,34,34,35,35],"right_children":[2,4,6,8,10,12,14,16,18,-1,20,22,24,26,-1,28,30,32,34,-1,-1,36,38,40,-1,42,-1,44,46,48,50,52,-1,54,56,58,-1,-1,-1,-1,-1,-1,-1,-1,-1,-1,-1,-1,-1,-1,-1,-1,-1,-1,-1,-1,-1,-1,-1],"split_conditions":[3E0,4E0,1E0,6E0,2E0,1E0,4E0,4E0,2E0,-2.2473212E-2,5E0,2E0,5E0,1E0,7.3731146E-3,3E0,2E0,1E0,1E0,1.5376235E-2,1.5692568E-1,1E0,5E0,4E0,9.921632E-2,8E0,1.3781737E-1,1E0,3E0,1E0,7E0,9E0,5.5583443E-2,7E0,3E0,3E0,-8.501321E-2,6.457491E-2,6.6869184E-3,6.0851075E-2,-1.826565E-2,7.758721E-2,1.1514853E-3,-7.034189E-2,-1.3522013E-2,4.378488E-2,-6.465778E-2,-2.9441321E-2,-6.2473204E-2,4.108963E-2,-5.793729E-2,-3.481211E-2,2.6585264E-2,-6.945178E-3,1.4934538E-1,4.4996258E-2,-3.861939E-2,3.6153365E-2,-4.1204777E-2],"split_indices":[6,10,2,9,9,3,6,0,6,0,0,10,7,10,0,0,10,3,10,0,0,10,0,9,0,0,0,11,7,6,0,9,0,0,11,11,0,0,0,0,0,0,0,0,0,0,0,0,0,0,0,0,0,0,0,0,0,0,0],"split_type":[0,0,0,0,0,0,0,0,0,0,0,0,0,0,0,0,0,0,0,0,0,0,0,0,0,0,0,0,0,0,0,0,0,0,0,0,0,0,0,0,0,0,0,0,0,0,0,0,0,0,0,0,0,0,0,0,0,0,0],"sum_hessian":[1.064696E2,8.590911E1,2.0560488E1,8.05809E1,5.3282056E0,1.3980451E1,6.580038E0,6.3919678E1,1.6661228E1,1.3525585E0,3.9756472E0,9.684977E0,4.295473E0,5.3300867E0,1.2499511E0,2.2122675E1,4.1797E1,9.689907E0,6.971321E0,1.4118198E0,2.5638273E0,7.147937E0,2.5370405E0,2.7541919E0,1.5412815E0,2.8655949E0,2.464492E0,1.0891114E1,1.123156E1,3.5723366E1,6.0736365E0,7.8065653E0,1.8833416E0,3.760696E0,3.2106252E0,5.3704147E0,1.7775218E0,1.2268527E0,1.3101878E0,1.7224735E0,1.0317183E0,1.5926943E0,1.2729006E0,2.1105545E0,8.78056E0,1.0053622E1,1.1779382E0,1.9547836E1,1.617553E1,3.4693506E0,2.6042857E0,6.190265E0,1.6163002E0,1.6035455E0,2.1571503E0,1.7827269E0,1.4278984E0,3.8066864E0,1.5637283E0],"tree_param":{"num_deleted":"0","num_feature":"12","num_nodes":"59","size_leaf_vector":"1"}},{"base_weights":[-9.268143E-3,-1.5277006E-1,4.751934E-1,-2.8577402E-1,2.0045744E-1,5.77377E-1,-2.3775771E-1,-3.4419754E-1,2.849136E-1,-1.6065934E-1,2.8952688E-1,4.0297714E-1,9.292611E-1,3.1073345E-2,-5.6985643E-2,-6.1512876E-1,-2.0577121E-1,6.480994E-2,-1.0490412E-1,-4.192616E-2,1.2665886E-1,7.210648E-1,1.7931573E-1,7.214502E-1,1.323694E-1,1.3236147E-1,4.7803935E-1,-7.503065E-1,-1.9874783E-1,-4.0769637E-1,-3.172029E-2,-6.2713586E-2,4.0709097E-2,-1.1247202E-2,3.028754E-2,1.3365458E-1,-7.4861534E-3,-2.2067553E-1,3.3436343E-1,9.089765E-1,2.2654207E-1,-1.4654487E-1,4.4513464E-1,6.599922E-2,9.810793E-3,-2.9085843E-2,-7.92455E-2,-7.575946E-2,4.712132E-2,-5.260387E-2,6.2754504E-2,2.008677E-2,-3.840686E-2,-7.237657E-2,1.843489E-2,4.8278805E-2,-4.609792E-2,1.4487636E-1,-9.684659E-3,-2.2225501E-2,5.437631E-2,-5.7799604E-2,6.0281575E-2,1.0277871E-1,-1.2835465E-2],"categories":[],"categories_nodes":[],"categories_segments":[],"categories_sizes":[],"default_left":[0,0,0,0,0,0,0,0,0,0,0,0,0,0,0,0,0,0,0,0,0,0,0,0,0,0,0,0,0,0,0,0,0,0,0,0,0,0,0,0,0,0,0,0,0,0,0,0,0,0,0,0,0,0,0,0,0,0,0,0,0,0,0,0,0],"id":16,"left_children":[1,3,5,7,9,11,13,15,17,19,21,23,25,-1,-1,27,29,-1,31,-1,33,35,37,39,41,-1,43,45,47,49,51,-1,-1,-1,-1,-1,-1,53,55,57,59,61,63,-1,-1,-1,-1,-1,-1,-1,-1,-1,-1,-1,-1,-1,-1,-1,-1,-1,-1,-1,-1,-1,-1],"loss_changes":[7.498391E0,3.964254E0,1.9332385E0,2.1260867E0,7.970953E-1,9.666505E-1,8.6901414E-1,1.9597635E0,9.451652E-1,4.439345E-1,7.779424E-1,1.3159308E0,5.19629E-1,0E0,0E0,8.813977E-1,1.3338667E0,0E0,1.2844515E0,0E0,1.7142473E-1,1.8389561E0,1.0986862E0,4.7145343E-1,9.4445246E-1,0E0,2.5225258E-1,3.0186176E-2,2.5463324E0,2.4931483E0,1.8526663E0,0E0,0E0,0E0,0E0,0E0,0E0,1.1968403E0,1.6753851E0,2.8338327E0,5.9601516E-1,2.3141758E0,1.8022318E0,0E0,0E0,0E0,0E0,0E0,0E0,0E0,0E0,0E0,0E0,0E0,0E0,0E0,0E0,0E0,0E0,0E0,0E0,0E0,0E0,0E0,0E0],"parents":[2147483647,0,0,1,1,2,2,3,3,4,4,5,5,6,6,7,7,8,8,9,9,10,10,11,11,12,12,15,15,16,16,18,18,20,20,21,21,22,22,23,23,24,24,26,26,27,27,28,28,29,29,30,30,37,37,38,38,39,39,40,40,41,41,42,42],"right_children":[2,4,6,8,10,12,14,16,18,20,22,24,26,-1,-1,28,30,-1,32,-1,34,36,38,40,42,-1,44,46,48,50,52,-1,-1,-1,-1,-1,-1,54,56,58,60,62,64,-1,-1,-1,-1,-1,-1,-1,-1,-1,-1,-1,-1,-1,-1,-1,-1,-1,-1,-1,-1,-1,-1],"split_conditions":[3E0,5E0,8E0,4E0,1E0,8E0,6E0,2E0,6E0,6E0,1E0,5E0,4E0,3.1073345E-2,-5.6985643E-2,1E0,5E0,6.480994E-2,5E0,-4.192616E-2,5E0,2E0,2E0,5E0,6E0,1.3236147E-1,9E0,2E0,3E0,3E0,7E0,-6.2713586E-2,4.0709097E-2,-1.1247202E-2,3.028754E-2,1.3365458E-1,-7.4861534E-3,6E0,9E0,4E0,6E0,6E0,3E0,6.599922E-2,9.810793E-3,-2.9085843E-2,-7.92455E-2,-7.575946E-2,4.712132E-2,-5.260387E-2,6.2754504E-2,2.008677E-2,-3.840686E-2,-7.237657E-2,1.843489E-2,4.8278805E-2,-4.609792E-2,1.4487636E-1,-9.684659E-3,-2.2225501E-2,5.437631E-2,-5.7799604E-2,6.0281575E-2,1.0277871E-1,-1.2835465E-2],"split_indices":[6,9,9,10,7,0,0,11,11,11,6,0,7,0,0,7,0,0,0,0,0,8,7,9,11,0,0,0,9,5,0,0,0,0,0,0,0,11,0,6,11,9,9,0,0,0,0,0,0,0,0,0,0,0,0,0,0,0,0,0,0,0,0,0,0],"split_type":[0,0,0,0,0,0,0,0,0,0,0,0,0,0,0,0,0,0,0,0,0,0,0,0,0,0,0,0,0,0,0,0,0,0,0,0,0,0,0,0,0,0,0,0,0,0,0,0,0,0,0,0,0,0,0,0,0,0,0,0,0,0,0,0,0],"sum_hessian":[1.0581347E2,8.2161224E1,2.3652243E1,5.9825535E1,2.233569E1,2.0853567E1,2.798675E0,5.4629745E1,5.19579E0,4.2600985E0,1.807559E1,1.5377439E1,5.476128E0,1.0797325E0,1.7189425E0,1.7308811E1,3.7320934E1,2.346774E0,2.8490157E0,2.000402E0,2.2596962E0,2.5496638E0,1.5525927E1,6.2986455E0,9.078793E0,1.8904936E0,3.5856342E0,1.2461292E1,4.8475194E0,1.6655575E1,2.066536E1,1.2990779E0,1.5499377E0,1.1121783E0,1.147518E0,1.0547807E0,1.4948831E0,4.2188597E0,1.1307067E1,3.9610877E0,2.337558E0,5.0800323E0,3.9987605E0,1.9260808E0,1.6595535E0,1.7109995E0,1.0750293E1,2.5716107E0,2.2759085E0,1.5388344E1,1.267231E0,1.270717E1,7.9581895E0,1.5306437E0,2.688216E0,9.860002E0,1.4470651E0,2.2911422E0,1.6699454E0,1.0919958E0,1.2455622E0,3.3689883E0,1.7110443E0,1.590591E0,2.4081695E0],"tree_param":{"num_deleted":"0","num_feature":"12","num_nodes":"65","size_leaf_vector":"1"}},{"base_weights":[4.1742217E-2,-7.171861E-1,1.1063274E-1,-9.158472E-2,2.9719725E-2,-3.4695383E-2,3.4641618E-1,-1.0214198E-1,6.0822576E-1,4.1969854E-1,-1.2148978E-1,-1.5388243E-1,5.2657616E-1,-5.842147E-2,9.733774E-1,2.5117162E-1,6.412348E-1,2.2340351E-1,-7.4405126E-2,-1.8019225E-1,2.7291882E-1,1.0540742E-1,9.71181E-2,3.421773E-2,1.3971119E-1,2.2927761E-2,7.5322497E-1,8.974317E-1,1.8987756E-2,-3.940937E-2,7.1515724E-2,-5.9363913E-2,-1.3715408E-2,6.5546654E-2,-2.2641601E-2,7.334961E-2,-7.155853E-2,-1.2310578E-2,6.337923E-2,9.369123E-3,1.2746565E-1,1.3074858E-1,4.3182135E-2,-3.05423E-2,6.1593484E-2],"categories":[],"categories_nodes":[],"categories_segments":[],"categories_sizes":[],"default_left":[0,0,0,0,0,0,0,0,0,0,0,0,0,0,0,0,0,0,0,0,0,0,0,0,0,0,0,0,0,0,0,0,0,0,0,0,0,0,0,0,0,0,0,0,0],"id":17,"left_children":[1,3,5,-1,-1,7,9,11,13,15,17,19,21,-1,23,25,27,29,-1,31,33,35,-1,-1,-1,37,39,41,43,-1,-1,-1,-1,-1,-1,-1,-1,-1,-1,-1,-1,-1,-1,-1,-1],"loss_changes":[5.6231604E0,2.0773482E0,3.3727236E0,0E0,0E0,2.7326946E0,1.3365088E0,1.9220881E0,3.1773546E0,1.057488E0,1.4227707E0,6.450578E-1,7.4580026E-1,0E0,8.4901047E-1,2.2952685E0,2.1283226E0,1.6589013E0,0E0,8.1872416E-1,8.1295276E-1,2.3027673E0,0E0,0E0,0E0,1.407652E0,2.0388494E0,1.2512956E0,1.146035E0,0E0,0E0,0E0,0E0,0E0,0E0,0E0,0E0,0E0,0E0,0E0,0E0,0E0,0E0,0E0,0E0],"parents":[2147483647,0,0,1,1,2,2,5,5,6,6,7,7,8,8,9,9,10,10,11,11,12,12,14,14,15,15,16,16,17,17,19,19,20,20,21,21,25,25,26,26,27,27,28,28],"right_children":[2,4,6,-1,-1,8,10,12,14,16,18,20,22,-1,24,26,28,30,-1,32,34,36,-1,-1,-1,38,40,42,44,-1,-1,-1,-1,-1,-1,-1,-1,-1,-1,-1,-1,-1,-1,-1,-1],"split_conditions":[1E0,2E0,1E0,-9.158472E-2,2.9719725E-2,4E0,9E0,4E0,2E0,2E0,1E0,3E0,1E0,-5.842147E-2,4E0,2E0,8E0,6E0,-7.4405126E-2,2E0,6E0,6E0,9.71181E-2,3.421773E-2,1.3971119E-1,8E0,5E0,3E0,8E0,-3.940937E-2,7.1515724E-2,-5.9363913E-2,-1.3715408E-2,6.5546654E-2,-2.2641601E-2,7.334961E-2,-7.155853E-2,-1.2310578E-2,6.337923E-2,9.369123E-3,1.2746565E-1,1.3074858E-1,4.3182135E-2,-3.05423E-2,6.1593484E-2],"split_indices":[11,5,1,0,0,10,0,7,9,5,10,5,2,0,9,10,0,9,0,0,11,0,0,0,0,0,9,7,9,0,0,0,0,0,0,0,0,0,0,0,0,0,0,0,0],"split_type":[0,0,0,0,0,0,0,0,0,0,0,0,0,0,0,0,0,0,0,0,0,0,0,0,0,0,0,0,0,0,0,0,0,0,0,0,0,0,0,0,0,0,0,0,0],"sum_hessian":[1.05034836E2,7.957791E0,9.707704E1,6.7357683E0,1.2220224E0,6.0586582E1,3.649046E1,5.5595394E1,4.991189E0,3.1638361E1,4.8521E0,5.206587E1,3.529524E0,1.0294594E0,3.9617295E0,1.9180872E1,1.2457489E1,3.5349338E0,1.3171662E0,4.958693E1,2.478939E0,2.4478176E0,1.0817064E0,2.3173316E0,1.6443979E0,1.3905027E1,5.275845E0,8.511017E0,3.9464722E0,1.6551502E0,1.8797836E0,3.4689636E0,4.6117966E1,1.2265681E0,1.2523708E0,1.4472182E0,1.0005994E0,1.18666525E1,2.0383742E0,2.8503082E0,2.425537E0,3.564084E0,4.9469323E0,2.8733237E0,1.0731487E0],"tree_param":{"num_deleted":"0","num_feature":"12","num_nodes":"45","size_leaf_vector":"1"}},{"base_weights":[7.868008E-2,-6.0432054E-2,4.1951865E-1,-1.1594761E-1,5.583342E-1,-3.0893412E-1,4.9586838E-1,-2.2324404E-1,1.91903E-1,7.499982E-1,1.3022701E-1,-6.358125E-2,1.5566816E-2,5.393511E-1,-2.8470248E-2,-2.6565742E-1,2.4057353E-1,3.1640446E-1,-2.257156E-1,1.42073855E-2,1.3311888E-1,-1.4502441E-2,3.504645E-2,6.249032E-1,-1.5275488E-2,-2.9778707E-1,6.2072653E-2,5.3117163E-2,-2.9214924E-2,4.0258554E-1,-7.532691E-2,-8.632405E-2,6.0325462E-2,4.1306782E-1,8.641584E-1,-5.8647018E-2,6.812932E-2,-1.20963445E-2,-4.173049E-2,6.06607E-3,5.664701E-2,2.7261633E-2,-3.425071E-2,1.0291122E-2,8.6842425E-2,1.1314062E-1,2.9809693E-2],"categories":[],"categories_nodes":[],"categories_segments":[],"categories_sizes":[],"default_left":[0,0,0,0,0,0,0,0,0,0,0,0,0,0,0,0,0,0,0,0,0,0,0,0,0,0,0,0,0,0,0,0,0,0,0,0,0,0,0,0,0,0,0,0,0,0,0],"id":18,"left_children":[1,3,5,7,9,11,13,15,17,19,21,-1,-1,23,-1,25,27,29,31,-1,-1,-1,-1,33,35,37,-1,-1,-1,39,41,-1,-1,43,45,-1,-1,-1,-1,-1,-1,-1,-1,-1,-1,-1,-1],"loss_changes":[5.066947E0,2.68863E0,1.8742757E0,2.3855345E0,4.3246484E-1,6.3838744E-1,1.1172643E0,1.1076176E0,1.0524538E0,1.3134546E0,2.4530634E-1,0E0,0E0,1.3020988E0,0E0,1.582757E0,9.2456114E-1,5.350809E-1,3.1192575E0,0E0,0E0,0E0,0E0,8.403778E-1,2.2363605E0,9.6486664E-1,0E0,0E0,0E0,6.612053E-1,4.2232767E-1,0E0,0E0,1.9508309E0,1.202498E0,0E0,0E0,0E0,0E0,0E0,0E0,0E0,0E0,0E0,0E0,0E0,0E0],"parents":[2147483647,0,0,1,1,2,2,3,3,4,4,5,5,6,6,7,7,8,8,9,9,10,10,13,13,15,15,16,16,17,17,18,18,23,23,24,24,25,25,29,29,30,30,33,33,34,34],"right_children":[2,4,6,8,10,12,14,16,18,20,22,-1,-1,24,-1,26,28,30,32,-1,-1,-1,-1,34,36,38,-1,-1,-1,40,42,-1,-1,44,46,-1,-1,-1,-1,-1,-1,-1,-1,-1,-1,-1,-1],"split_conditions":[7E0,1E0,1E0,1E0,5E0,1E0,1.1E1,4E0,6E0,4E0,1E0,-6.358125E-2,1.5566816E-2,1E0,-2.8470248E-2,5E0,1E0,4E0,4E0,1.42073855E-2,1.3311888E-1,-1.4502441E-2,3.504645E-2,6E0,1E0,4E0,6.2072653E-2,5.3117163E-2,-2.9214924E-2,4E0,5E0,-8.632405E-2,6.0325462E-2,1E0,1E0,-5.8647018E-2,6.812932E-2,-1.20963445E-2,-4.173049E-2,6.06607E-3,5.664701E-2,2.7261633E-2,-3.425071E-2,1.0291122E-2,8.6842425E-2,1.1314062E-1,2.9809693E-2],"split_indices":[0,4,8,1,9,10,9,10,0,9,6,0,0,4,0,8,8,6,8,0,0,0,0,9,2,0,0,0,0,0,9,0,0,10,10,0,0,0,0,0,0,0,0,0,0,0,0],"split_type":[0,0,0,0,0,0,0,0,0,0,0,0,0,0,0,0,0,0,0,0,0,0,0,0,0,0,0,0,0,0,0,0,0,0,0,0,0,0,0,0,0,0,0,0,0,0,0],"sum_hessian":[1.05329605E2,7.538441E1,2.99452E1,6.99235E1,5.460905E0,2.5518353E0,2.7393364E1,5.2055286E1,1.7868214E1,3.2527514E0,2.2081535E0,1.2816211E0,1.2702143E0,2.6240625E1,1.1527395E0,4.80854E1,3.9698896E0,1.395136E1,3.9168534E0,2.1980488E0,1.0547024E0,1.1332872E0,1.0748664E0,2.262411E1,3.6165164E0,4.7044186E1,1.0412143E0,2.5705674E0,1.3993223E0,1.1412826E1,2.5385344E0,2.190723E0,1.7261305E0,1.34457655E1,9.178344E0,2.0739284E0,1.5425879E0,1.9784945E1,2.725924E1,4.14174E0,7.2710853E0,1.0937804E0,1.4447541E0,8.727328E0,4.718437E0,5.556354E0,3.621989E0],"tree_param":{"num_deleted":"0","num_feature":"12","num_nodes":"47","size_leaf_vector":"1"}},{"base_weights":[8.674097E-2,1.1161435E-3,4.2372495E-1,-2.8724127E-2,9.191749E-2,1.7135708E-1,8.6359985E-2,-1.4393598E-1,1.463805E-1,3.4375226E-1,-5.882367E-2,-4.493999E-1,2.8445304E-3,4.3244225E-1,-7.391901E-2,6.7067814E-1,-3.6030915E-2,-2.4092852E-1,-8.58838E-2,-2.635911E-1,7.373442E-2,2.1126443E-1,1.0067227E-1,4.359691E-1,-2.0396233E-1,9.5028035E-2,3.7069806E-1,-4.0004665E-1,6.4844236E-2,-3.300385E-2,3.1197248E-2,-4.1908048E-2,2.8716892E-2,3.8549203E-2,-3.4226463E-3,4.5502905E-2,-5.853646E-2,5.4835875E-2,8.098958E-3,-8.488889E-2,-6.1298492E-3,-3.573249E-2,8.442535E-2,1.9013312E-3,-5.9040487E-2],"categories":[],"categories_nodes":[],"categories_segments":[],"categories_sizes":[],"default_left":[0,0,0,0,0,0,0,0,0,0,0,0,0,0,0,0,0,0,0,0,0,0,0,0,0,0,0,0,0,0,0,0,0,0,0,0,0,0,0,0,0,0,0,0,0],"id":19,"left_children":[1,3,5,7,-1,9,-1,11,13,15,-1,17,19,21,23,25,27,29,-1,31,33,35,-1,37,39,-1,41,43,-1,-1,-1,-1,-1,-1,-1,-1,-1,-1,-1,-1,-1,-1,-1,-1,-1],"loss_changes":[3.0398006E0,2.3555648E0,2.2216127E0,1.7018617E0,0E0,2.1417594E0,0E0,2.2769492E0,2.146828E0,1.601354E0,0E0,1.1997013E0,6.857115E-1,1.6603599E0,1.4026527E0,2.2457695E-1,1.9600079E0,7.094387E-1,0E0,7.739225E-1,9.772812E-1,2.5794811E0,0E0,1.2893492E-1,1.463124E0,0E0,2.0107822E0,4.1600025E-1,0E0,0E0,0E0,0E0,0E0,0E0,0E0,0E0,0E0,0E0,0E0,0E0,0E0,0E0,0E0,0E0,0E0],"parents":[2147483647,0,0,1,1,2,2,3,3,5,5,7,7,8,8,9,9,11,11,12,12,13,13,14,14,15,15,16,16,17,17,19,19,20,20,21,21,23,23,24,24,26,26,27,27],"right_children":[2,4,6,8,-1,10,-1,12,14,16,-1,18,20,22,24,26,28,30,-1,32,34,36,-1,38,40,-1,42,44,-1,-1,-1,-1,-1,-1,-1,-1,-1,-1,-1,-1,-1,-1,-1,-1,-1],"split_conditions":[1E0,4E0,3E0,1E0,9.191749E-2,3E0,8.6359985E-2,2E0,3E0,2E0,-5.882367E-2,1E0,3E0,3E0,3E0,6E0,8E0,2E0,-8.58838E-2,1E0,4E0,8E0,1.0067227E-1,4E0,4E0,9.5028035E-2,2E0,2E0,6.4844236E-2,-3.300385E-2,3.1197248E-2,-4.1908048E-2,2.8716892E-2,3.8549203E-2,-3.4226463E-3,4.5502905E-2,-5.853646E-2,5.4835875E-2,8.098958E-3,-8.488889E-2,-6.1298492E-3,-3.573249E-2,8.442535E-2,1.9013312E-3,-5.9040487E-2],"split_indices":[3,5,6,1,0,5,0,9,7,7,0,8,0,8,9,0,0,5,0,6,0,0,0,6,0,0,5,6,0,0,0,0,0,0,0,0,0,0,0,0,0,0,0,0,0],"split_type":[0,0,0,0,0,0,0,0,0,0,0,0,0,0,0,0,0,0,0,0,0,0,0,0,0,0,0,0,0,0,0,0,0,0,0,0,0,0,0,0,0,0,0,0,0],"sum_hessian":[1.0436679E2,8.402105E1,2.0345737E1,8.231425E1,1.7068021E0,1.3811356E1,6.534382E0,4.975527E1,3.255898E1,1.1702779E1,2.108576E0,1.5479425E1,3.4275845E1,1.3746282E1,1.8812698E1,5.877417E0,5.825362E0,1.1309478E1,4.169948E0,6.631901E0,2.7643944E1,1.09116535E1,2.8346274E0,3.3449519E0,1.5467747E1,1.9200168E0,3.9574003E0,4.074178E0,1.7511837E0,1.0086874E1,1.2226038E0,5.3582563E0,1.2736441E0,6.449402E0,2.1194542E1,8.683387E0,2.2282674E0,2.1268206E0,1.2181313E0,1.9051312E0,1.3562615E1,1.6563871E0,2.3010132E0,1.5537741E0,2.5204043E0],"tree_param":{"num_deleted":"0","num_feature":"12","num_nodes":"45","size_leaf_vector":"1"}},{"base_weights":[3.6918984E-3,-4.4269198E-1,1.0743846E-1,-6.8880886E-2,-1.3231848E-1,1.2705286E-2,3.9201522E-1,-4.6814278E-1,3.707046E-1,6.647184E-2,-2.0064043E-1,1.8510039E-1,7.92541E-1,-7.2599076E-2,-1.7828916E-1,6.3229305E-1,-2.2232447E-2,1.0572714E-3,1.7530988E-1,-1.3586824E-2,-4.2163694E-1,7.70417E-1,-3.8059294E-2,2.4100468E-1,1.2637104E-1,-5.9022762E-2,1.6849002E-1,1.9458868E-2,8.326386E-2,8.357164E-2,-4.001768E-1,-1.6652943E-1,3.7229934E-1,-2.9850636E-2,1.03753224E-1,-2.3201898E-1,-6.318648E-2,1.0004478E-1,1.340719E-2,-2.5871077E-1,3.277511E-1,-4.372744E-2,6.871314E-2,3.437268E-2,-9.882688E-3,4.0384907E-2,-3.1823681E-3,-6.996908E-2,3.347254E-3,-5.5814546E-2,4.8093185E-2,-1.1933462E-2,6.356326E-2,3.5745054E-2,-5.816257E-2,-4.7386818E-2,2.1826856E-2,-5.7862986E-2,3.9924473E-2,8.8604234E-2,-3.4906458E-2],"categories":[],"categories_nodes":[],"categories_segments":[],"categories_sizes":[],"default_left":[0,0,0,0,0,0,0,0,0,0,0,0,0,0,0,0,0,0,0,0,0,0,0,0,0,0,0,0,0,0,0,0,0,0,0,0,0,0,0,0,0,0,0,0,0,0,0,0,0,0,0,0,0,0,0,0,0,0,0,0,0],"id":20,"left_children":[1,3,5,-1,7,9,11,13,15,17,19,21,23,-1,25,27,-1,29,31,33,35,37,39,41,-1,-1,43,-1,-1,45,47,49,51,-1,53,55,-1,-1,-1,57,59,-1,-1,-1,-1,-1,-1,-1,-1,-1,-1,-1,-1,-1,-1,-1,-1,-1,-1,-1,-1],"loss_changes":[5.0270953E0,1.4727378E0,2.3687863E0,0E0,1.9121771E0,7.8296286E-1,1.6730199E0,3.6486268E-1,8.6634165E-1,3.866926E-1,5.628401E-1,2.0908484E0,1.5599179E0,0E0,7.335878E-1,1.4547753E-1,0E0,1.1904448E0,1.4352496E0,3.1455833E-1,1.0340357E-1,5.104487E-1,1.0840024E0,1.6745999E0,0E0,0E0,1.8331306E-1,0E0,0E0,1.1146965E0,8.200932E-1,2.334012E0,1.7908219E0,0E0,1.3816075E0,6.34626E-1,0E0,0E0,0E0,1.9740002E0,2.2358909E0,0E0,0E0,0E0,0E0,0E0,0E0,0E0,0E0,0E0,0E0,0E0,0E0,0E0,0E0,0E0,0E0,0E0,0E0,0E0,0E0],"parents":[2147483647,0,0,1,1,2,2,4,4,5,5,6,6,7,7,8,8,9,9,10,10,11,11,12,12,14,14,15,15,17,17,18,18,19,19,20,20,21,21,22,22,23,23,26,26,29,29,30,30,31,31,32,32,34,34,35,35,39,39,40,40],"right_children":[2,4,6,-1,8,10,12,14,16,18,20,22,24,-1,26,28,-1,30,32,34,36,38,40,42,-1,-1,44,-1,-1,46,48,50,52,-1,54,56,-1,-1,-1,58,60,-1,-1,-1,-1,-1,-1,-1,-1,-1,-1,-1,-1,-1,-1,-1,-1,-1,-1,-1,-1],"split_conditions":[2E0,3E0,3E0,-6.8880886E-2,1E0,8E0,1E0,4E0,3E0,7E0,3E0,5E0,6E0,-7.2599076E-2,1E0,5E0,-2.2232447E-2,1E0,3E0,3E0,6E0,3E0,1E0,3E0,1.2637104E-1,-5.9022762E-2,4E0,1.9458868E-2,8.326386E-2,3E0,6E0,7E0,1E0,-2.9850636E-2,1E0,5E0,-6.318648E-2,1.0004478E-1,1.340719E-2,8E0,8E0,-4.372744E-2,6.871314E-2,3.437268E-2,-9.882688E-3,4.0384907E-2,-3.1823681E-3,-6.996908E-2,3.347254E-3,-5.5814546E-2,4.8093185E-2,-1.1933462E-2,6.356326E-2,3.5745054E-2,-5.816257E-2,-4.7386818E-2,2.1826856E-2,-5.7862986E-2,3.9924473E-2,8.8604234E-2,-3.4906458E-2],"split_indices":[11,9,6,0,7,11,3,0,7,0,9,0,11,0,11,0,0,2,11,0,0,11,2,9,0,0,9,0,0,11,11,9,6,0,7,0,0,0,0,0,0,0,0,0,0,0,0,0,0,0,0,0,0,0,0,0,0,0,0,0,0],"split_type":[0,0,0,0,0,0,0,0,0,0,0,0,0,0,0,0,0,0,0,0,0,0,0,0,0,0,0,0,0,0,0,0,0,0,0,0,0,0,0,0,0,0,0,0,0,0,0,0,0,0,0,0,0,0,0,0,0,0,0,0,0],"sum_hessian":[1.0652426E2,1.9472801E1,8.705146E1,1.01806E1,9.292201E0,6.609399E1,2.0957478E1,5.613741E0,3.6784601E0,5.3339905E1,1.2754082E1,1.478274E1,6.1747375E0,2.174589E0,3.439152E0,2.506583E0,1.171877E0,3.3946728E1,1.9393175E1,7.482392E0,5.27169E0,3.4035065E0,1.1379233E1,3.5411177E0,2.6336198E0,1.2510291E0,2.1881227E0,1.4060293E0,1.1005538E0,2.8813005E1,5.1337233E0,7.1464467E0,1.2246728E1,1.7322594E0,5.7501326E0,3.8777523E0,1.3939377E0,2.0795846E0,1.3239218E0,7.28051E0,4.0987234E0,1.4128703E0,2.1282473E0,1.1490409E0,1.0390819E0,6.9695253E0,2.184348E1,2.6736119E0,2.4601114E0,4.538992E0,2.6074548E0,4.462405E0,7.784323E0,4.5459013E0,1.2042311E0,2.4887033E0,1.389049E0,4.9797564E0,2.3007534E0,2.0766249E0,2.0220988E0],"tree_param":{"num_deleted":"0","num_feature":"12","num_nodes":"61","size_leaf_vector":"1"}},{"base_weights":[-2.3543516E-2,-1.5433085E-1,2.0686096E-1,-2.3904459E-1,4.03784E-1,1.2772608E-1,5.652227E-1,-2.961996E-1,4.0013486E-1,7.025432E-1,-6.8060644E-2,7.6567784E-2,5.2467865E-1,8.3251536E-2,-8.923217E-3,-2.5960356E-1,-8.147194E-2,-2.103975E-2,6.650272E-2,2.1715727E-1,1.04832545E-1,2.1329029E-2,-3.8586076E-2,1.2097294E-1,-3.2633E-2,1.5097489E-2,6.468911E-2,-4.7101727E-1,-1.5660028E-1,-2.438848E-2,6.257456E-2,2.4878599E-1,3.7871018E-2,-5.3211935E-2,2.0741262E-3,-7.916763E-4,-4.037899E-2,-4.409083E-2,4.376381E-2,-3.5115045E-2,2.2929965E-2],"categories":[],"categories_nodes":[],"categories_segments":[],"categories_sizes":[],"default_left":[0,0,0,0,0,0,0,0,0,0,0,0,0,0,0,0,0,0,0,0,0,0,0,0,0,0,0,0,0,0,0,0,0,0,0,0,0,0,0,0,0],"id":21,"left_children":[1,3,5,7,9,11,13,15,17,19,21,23,25,-1,-1,27,-1,-1,-1,29,-1,-1,-1,31,-1,-1,-1,33,35,-1,-1,37,39,-1,-1,-1,-1,-1,-1,-1,-1],"loss_changes":[3.1754465E0,3.269829E0,1.01114E0,2.2702916E0,1.3470846E0,6.215021E-1,1.2319553E0,8.253436E-1,9.9058133E-1,7.343607E-1,4.8331705E-1,5.768076E-1,6.442034E-2,0E0,0E0,1.0696275E0,0E0,0E0,0E0,8.393936E-1,0E0,0E0,0E0,2.8566495E-1,0E0,0E0,0E0,5.129187E-1,1.3494292E0,0E0,0E0,1.5953279E0,1.422112E0,0E0,0E0,0E0,0E0,0E0,0E0,0E0,0E0],"parents":[2147483647,0,0,1,1,2,2,3,3,4,4,5,5,6,6,7,7,8,8,9,9,10,10,11,11,12,12,15,15,19,19,23,23,27,27,28,28,31,31,32,32],"right_children":[2,4,6,8,10,12,14,16,18,20,22,24,26,-1,-1,28,-1,-1,-1,30,-1,-1,-1,32,-1,-1,-1,34,36,-1,-1,38,40,-1,-1,-1,-1,-1,-1,-1,-1],"split_conditions":[1E0,1E0,3E0,6E0,5E0,1E0,7E0,3E0,1E0,4E0,1E0,1E1,5E0,8.3251536E-2,-8.923217E-3,2E0,-8.147194E-2,-2.103975E-2,6.650272E-2,1E0,1.04832545E-1,2.1329029E-2,-3.8586076E-2,3E0,-3.2633E-2,1.5097489E-2,6.468911E-2,2E0,4E0,-2.438848E-2,6.257456E-2,2E0,3E0,-5.3211935E-2,2.0741262E-3,-7.916763E-4,-4.037899E-2,-4.409083E-2,4.376381E-2,-3.5115045E-2,2.2929965E-2],"split_indices":[1,4,5,9,9,3,9,5,3,9,3,9,9,0,0,9,0,0,0,3,0,0,0,7,0,0,0,5,9,0,0,9,6,0,0,0,0,0,0,0,0],"split_type":[0,0,0,0,0,0,0,0,0,0,0,0,0,0,0,0,0,0,0,0,0,0,0,0,0,0,0,0,0,0,0,0,0,0,0,0,0,0,0,0,0],"sum_hessian":[1.0331813E2,6.611732E1,3.7200813E1,5.7900547E1,8.216771E0,3.1582954E1,5.6178594E0,5.3640633E1,4.259914E0,4.7317967E0,3.4849746E0,2.903401E1,2.548944E0,3.7955892E0,1.8222703E0,5.1506104E1,2.1345289E0,1.3512452E0,2.9086685E0,2.6458068E0,2.08599E0,2.0229208E0,1.4620537E0,2.6781992E1,2.2520194E0,1.1790298E0,1.3699143E0,1.5702976E1,3.5803127E1,1.4325042E0,1.2133026E0,9.766736E0,1.7015255E1,1.3894483E1,1.8084935E0,2.300047E1,1.2802659E1,1.8125536E0,7.9541826E0,5.3363504E0,1.1678905E1],"tree_param":{"num_deleted":"0","num_feature":"12","num_nodes":"41","size_leaf_vector":"1"}},{"base_weights":[2.283276E-2,-1.1339707E-1,2.2731099E-1,-1.6533865E-1,3.914782E-1,2.8339016E-1,-5.652925E-2,-7.3389105E-2,-8.7278515E-2,-1.6819775E-1,1.036193E-1,6.613125E-2,4.9750564E-1,-1.1671359E-1,3.2792166E-1,4.027861E-2,-4.99581E-2,4.1208303E-1,-1.1428976E-1,6.662256E-1,1.643663E-1,-7.021262E-2,-6.5205497E-1,-2.6799856E-2,6.956653E-2,7.123349E-1,7.1425036E-2,-6.454649E-1,2.4004203E-1,2.597136E-1,8.464912E-1,-2.7186903E-1,4.5652667E-1,3.095539E-3,-3.0196607E-2,-1.4138154E-2,-8.112721E-2,1.20665394E-1,-5.6320652E-3,-4.5194324E-2,5.553904E-2,2.6953535E-3,-8.990617E-2,-3.4292173E-2,5.4248482E-2,8.1722476E-2,-2.3671893E-2,4.4152993E-3,9.59211E-2,-4.8509978E-2,5.4107876E-3,8.3420694E-2,-1.0270503E-2],"categories":[],"categories_nodes":[],"categories_segments":[],"categories_sizes":[],"default_left":[0,0,0,0,0,0,0,0,0,0,0,0,0,0,0,0,0,0,0,0,0,0,0,0,0,0,0,0,0,0,0,0,0,0,0,0,0,0,0,0,0,0,0,0,0,0,0,0,0,0,0,0,0],"id":22,"left_children":[1,3,5,7,9,11,-1,-1,13,15,-1,17,19,21,23,-1,-1,25,27,29,31,33,35,-1,-1,37,39,41,43,45,47,49,51,-1,-1,-1,-1,-1,-1,-1,-1,-1,-1,-1,-1,-1,-1,-1,-1,-1,-1,-1,-1],"loss_changes":[2.8717034E0,1.6901572E0,1.990725E0,2.4614043E0,2.3677266E0,1.7872674E0,0E0,0E0,6.636338E-1,9.7972435E-1,0E0,1.3313047E0,9.895258E-1,1.1620499E0,9.8630124E-1,0E0,0E0,6.92654E-1,2.8473716E0,7.073002E-1,1.1311151E0,1.0822902E0,1.9077468E-1,0E0,0E0,1.493719E0,1.3951184E0,1.0465674E0,1.8275089E0,1.6684783E0,7.103381E-1,2.9009384E-1,1.1639502E0,0E0,0E0,0E0,0E0,0E0,0E0,0E0,0E0,0E0,0E0,0E0,0E0,0E0,0E0,0E0,0E0,0E0,0E0,0E0,0E0],"parents":[2147483647,0,0,1,1,2,2,3,3,4,4,5,5,8,8,9,9,11,11,12,12,13,13,14,14,17,17,18,18,19,19,20,20,21,21,22,22,25,25,26,26,27,27,28,28,29,29,30,30,31,31,32,32],"right_children":[2,4,6,8,10,12,-1,-1,14,16,-1,18,20,22,24,-1,-1,26,28,30,32,34,36,-1,-1,38,40,42,44,46,48,50,52,-1,-1,-1,-1,-1,-1,-1,-1,-1,-1,-1,-1,-1,-1,-1,-1,-1,-1,-1,-1],"split_conditions":[2E0,4E0,9E0,1E0,4E0,5E0,-5.652925E-2,-7.3389105E-2,8E0,4E0,1.036193E-1,2E0,1E0,7E0,1E0,4.027861E-2,-4.99581E-2,3E0,3E0,6E0,2E0,1E0,1E0,-2.6799856E-2,6.956653E-2,7E0,6E0,5E0,3E0,1E0,1E0,6E0,8E0,3.095539E-3,-3.0196607E-2,-1.4138154E-2,-8.112721E-2,1.20665394E-1,-5.6320652E-3,-4.5194324E-2,5.553904E-2,2.6953535E-3,-8.990617E-2,-3.4292173E-2,5.4248482E-2,8.1722476E-2,-2.3671893E-2,4.4152993E-3,9.59211E-2,-4.8509978E-2,5.4107876E-3,8.3420694E-2,-1.0270503E-2],"split_indices":[6,10,9,11,9,9,0,0,9,0,0,9,10,9,10,0,0,11,11,9,10,6,1,0,0,0,0,0,6,1,1,11,0,0,0,0,0,0,0,0,0,0,0,0,0,0,0,0,0,0,0,0,0],"split_type":[0,0,0,0,0,0,0,0,0,0,0,0,0,0,0,0,0,0,0,0,0,0,0,0,0,0,0,0,0,0,0,0,0,0,0,0,0,0,0,0,0,0,0,0,0,0,0,0,0,0,0,0,0],"sum_hessian":[1.0116556E2,6.0982517E1,4.018304E1,5.5903664E1,5.078854E0,3.8127834E1,2.0552073E0,5.734526E0,5.0169136E1,3.114379E0,1.964475E0,1.9574656E1,1.8553177E1,4.7519222E1,2.6499157E0,1.0645891E0,2.04979E0,6.269354E0,1.3305303E1,1.1652083E1,6.901093E0,4.4762226E1,2.756994E0,1.1147401E0,1.5351756E0,2.752382E0,3.5169716E0,4.995284E0,8.310019E0,4.3294916E0,7.3225913E0,2.7958941E0,4.105199E0,3.1763042E1,1.2999185E1,1.1040002E0,1.6529937E0,1.3283205E0,1.4240615E0,1.7214899E0,1.7954818E0,1.6127502E0,3.382534E0,2.7928708E0,5.5171475E0,1.7349204E0,2.5945714E0,1.0734552E0,6.2491364E0,1.3951472E0,1.4007468E0,2.1568537E0,1.9483452E0],"tree_param":{"num_deleted":"0","num_feature":"12","num_nodes":"53","size_leaf_vector":"1"}}]},"name":"gbtree"},"learner_model_param":{"base_score":"[1.04375E-1]","boost_from_average":"1","num_class":"0","num_feature":"12","num_target":"1"},"objective":{"name":"binary:logistic","reg_loss_param":{"scale_pos_weight":"1"}}},"version":[3,1,3]}